{"learner":{"attributes":{"best_iteration":"99","best_ntree_limit":"100","scikit_learn":"{\"use_label_encoder\": null, \"n_estimators\": 100, \"objective\": \"binary:logistic\", \"max_depth\": null, \"max_leaves\": null, \"max_bin\": null, \"grow_policy\": null, \"learning_rate\": 0.3, \"verbosity\": 0, \"booster\": null, \"tree_method\": null, \"gamma\": null, \"min_child_weight\": null, \"max_delta_step\": null, \"subsample\": null, \"sampling_method\": null, \"colsample_bytree\": null, \"colsample_bylevel\": null, \"colsample_bynode\": null, \"reg_alpha\": null, \"reg_lambda\": null, \"scale_pos_weight\": null, \"base_score\": null, \"missing\": NaN, \"num_parallel_tree\": null, \"random_state\": null, \"n_jobs\": -1, \"monotone_constraints\": null, \"interaction_constraints\": null, \"importance_type\": null, \"gpu_id\": null, \"validate_parameters\": true, \"predictor\": null, \"enable_categorical\": false, \"feature_types\": null, \"max_cat_to_onehot\": null, \"max_cat_threshold\": null, \"eval_metric\": null, \"early_stopping_rounds\": null, \"callbacks\": null, \"classes_\": [0, 1], \"n_classes_\": 2, \"_estimator_type\": \"classifier\"}"},"feature_names":[],"feature_types":[],"gradient_booster":{"model":{"gbtree_model_param":{"num_parallel_tree":"1","num_trees":"100","size_leaf_vector":"0"},"tree_info":[0,0,0,0,0,0,0,0,0,0,0,0,0,0,0,0,0,0,0,0,0,0,0,0,0,0,0,0,0,0,0,0,0,0,0,0,0,0,0,0,0,0,0,0,0,0,0,0,0,0,0,0,0,0,0,0,0,0,0,0,0,0,0,0,0,0,0,0,0,0,0,0,0,0,0,0,0,0,0,0,0,0,0,0,0,0,0,0,0,0,0,0,0,0,0,0,0,0,0,0],"trees":[{"base_weights":[-0E0,1.9698275E0,-7.947826E-1,2.2222222E-1,1.9783316E0,1.9220779E0,-1.2124249E0,4E-1,1.9869138E0,5.882353E-1,1.9728813E0,1.826087E0,-1.4350162E0,1.9912376E0,5E-1,-4E-1,1.2727273E0,4.6153846E-1,1.9069767E0,-1.6695353E0,1.9349593E0,-1.7380117E0,1.6756756E0,-1.7710915E0,1.5789474E0,1.7575758E0,5E-1],"categories":[],"categories_nodes":[],"categories_segments":[],"categories_sizes":[],"default_left":[0,0,0,0,0,0,0,0,1,1,0,0,1,0,0,0,0,0,0,1,0,1,1,0,0,0,0],"id":0,"left_children":[1,3,5,-1,7,9,11,-1,13,15,-1,17,19,-1,-1,-1,-1,-1,-1,21,-1,23,25,-1,-1,-1,-1],"loss_changes":[1.2634268E3,3.0082397E0,6.547689E2,0E0,2.3309326E0,4.0572815E0,3.4011725E2,0E0,4.7827148E-1,3.3839574E0,0E0,2.9278946E0,3.7112628E2,0E0,0E0,0E0,0E0,0E0,0E0,1.0272876E2,0E0,4.9703613E1,1.1875153E-2,0E0,0E0,0E0,0E0],"parents":[2147483647,0,0,1,1,2,2,4,4,5,5,6,6,8,8,9,9,11,11,12,12,19,19,21,21,22,22],"right_children":[2,4,6,-1,8,10,12,-1,14,16,-1,18,20,-1,-1,-1,-1,-1,-1,22,-1,24,26,-1,-1,-1,-1],"split_conditions":[3.4E1,4.000001E0,4.000001E0,6.666667E-2,2.000001E0,2.000001E0,8.000001E0,1.20000005E-1,2E0,2.5E0,5.918644E-1,6E0,-9.536743E-7,5.9737134E-1,1.5E-1,-1.20000005E-1,3.818182E-1,1.3846155E-1,5.72093E-1,1.5E0,5.804878E-1,-9.536743E-7,2E0,-5.313275E-1,4.7368425E-1,5.2727276E-1,1.5E-1],"split_indices":[2396,2544,2687,0,2167,811,2389,0,632,0,0,1505,564,0,0,0,0,0,0,172,0,1091,1298,0,0,0,0],"split_type":[0,0,0,0,0,0,0,0,0,0,0,0,0,0,0,0,0,0,0,0,0,0,0,0,0,0,0],"sum_hessian":[8.05E2,2.31E2,5.74E2,1.25E0,2.2975E2,7.6E1,4.98E2,1.5E0,2.2825E2,3.25E0,7.275E1,3.35E1,4.645E2,2.2725E2,1E0,1.5E0,1.75E0,2.25E0,3.125E1,4.3475E2,2.975E1,4.265E2,8.25E0,4.2275E2,3.75E0,7.25E0,1E0],"tree_param":{"num_deleted":"0","num_feature":"3082","num_nodes":"27","size_leaf_vector":"0"}},{"base_weights":[6.347857E-3,1.5255579E0,-5.9819114E-1,2.803852E-1,1.5339235E0,1.4901658E0,-9.153811E-1,3.287948E-1,1.5409443E0,5.880116E-2,1.5136718E0,1.4122066E0,-1.085262E0,1.545317E0,4.07659E-1,1.5377308E0,5.729685E-1,3.670473E-1,1.4783672E0,-1.2633651E0,1.5046667E0,8.296939E-1,5.880116E-2,4.8854387E-1,1.5093431E0,1.8320712E0,-1.3151762E0,1.636597E0,-1.3593966E0],"categories":[],"categories_nodes":[],"categories_segments":[],"categories_sizes":[],"default_left":[0,0,0,0,0,0,0,0,1,0,0,0,1,0,0,0,0,0,0,0,0,0,0,0,0,0,0,0,0],"id":1,"left_children":[1,3,5,-1,7,9,11,-1,13,-1,15,17,19,-1,-1,-1,21,-1,23,25,-1,-1,-1,-1,-1,-1,27,-1,-1],"loss_changes":[6.8678455E2,1.787262E0,3.5570654E2,0E0,1.280426E0,2.2969818E0,1.8540619E2,0E0,4.0933228E-1,0E0,6.9706726E-1,1.6746483E0,2.020719E2,0E0,0E0,0E0,3.9114106E-1,0E0,1.7712402E-1,6.7614746E1,0E0,0E0,0E0,0E0,0E0,0E0,5.4496582E1,0E0,0E0],"parents":[2147483647,0,0,1,1,2,2,4,4,5,5,6,6,8,8,10,10,11,11,12,12,16,16,18,18,19,19,26,26],"right_children":[2,4,6,-1,8,10,12,-1,14,-1,16,18,20,-1,-1,-1,22,-1,24,26,-1,-1,-1,-1,-1,-1,28,-1,-1],"split_conditions":[3.4E1,4.000001E0,4.000001E0,8.4115565E-2,2.000001E0,2E0,8.000001E0,9.8638445E-2,2.75E1,1.7640349E-2,3.4E1,6E0,-9.536743E-7,4.6359512E-1,1.22297704E-1,4.6131927E-1,6.000001E0,1.10114194E-1,4.000001E0,4.000001E0,4.514E-1,2.4890818E-1,1.7640349E-2,1.4656317E-1,4.5280296E-1,5.496214E-1,2.000001E0,4.9097914E-1,-4.07819E-1],"split_indices":[2396,2400,2687,0,2167,2346,2389,0,1063,0,0,1505,564,0,0,0,1063,0,2149,2013,0,0,0,0,0,0,2658,0,0],"split_type":[0,0,0,0,0,0,0,0,0,0,0,0,0,0,0,0,0,0,0,0,0,0,0,0,0,0,0,0,0],"sum_hessian":[7.457941E2,2.118615E2,5.339327E2,1.6442406E0,2.1021725E2,6.991553E1,4.6401712E2,1.4946129E0,2.0872264E2,1.1861752E0,6.872935E1,3.1065569E1,4.3295157E2,2.0755821E2,1.1644356E0,6.639655E1,2.3327932E0,2.2392504E0,2.8826319E1,4.0557343E2,2.737813E1,1.1466181E0,1.1861752E0,1.3836633E0,2.7442656E1,6.1110272E0,3.994624E2,5.364496E0,3.940979E2],"tree_param":{"num_deleted":"0","num_feature":"3082","num_nodes":"29","size_leaf_vector":"0"}},{"base_weights":[1.3400204E-2,1.3197632E0,-4.897E-1,1.6441457E-2,1.3284672E0,1.2831868E0,-7.5173694E-1,2.712668E-1,1.3358363E0,2.627627E-1,1.3313973E0,1.2049887E0,-8.930117E-1,2.2933531E-1,1.3409135E0,-4.2960453E-1,8.51838E-1,2.9343426E-1,1.2728207E0,1.2045625E0,-1.0480794E0,2.9564843E-1,1.3086526E0,-6.990627E-1,1.3075452E0,-1.0880435E0,2.6752021E0,5.4769766E-1,1.3749485E0,-1.1259742E0,2.6286242E0],"categories":[],"categories_nodes":[],"categories_segments":[],"categories_sizes":[],"default_left":[0,0,0,0,0,0,0,0,0,1,0,0,0,0,0,0,0,0,0,0,1,0,0,0,0,1,0,0,0,0,0],"id":2,"left_children":[1,3,5,-1,7,9,11,-1,13,15,-1,17,19,-1,-1,-1,-1,-1,21,23,25,-1,-1,-1,27,29,-1,-1,-1,-1,-1],"loss_changes":[4.219828E2,2.0032654E0,2.1631828E2,0E0,1.0190125E0,2.6049423E0,1.1289455E2,0E0,6.803589E-1,1.9792476E0,0E0,1.3370361E0,1.2415985E2,0E0,0E0,0E0,0E0,0E0,5.0413895E-1,6.1041946E0,5.534143E1,0E0,0E0,0E0,5.5113983E-1,5.220694E1,0E0,0E0,0E0,0E0,0E0],"parents":[2147483647,0,0,1,1,2,2,4,4,5,5,6,6,8,8,9,9,11,11,12,12,18,18,19,19,20,20,24,24,25,25],"right_children":[2,4,6,-1,8,10,12,-1,14,16,-1,18,20,-1,-1,-1,-1,-1,22,24,26,-1,-1,-1,28,30,-1,-1,-1,-1,-1],"split_conditions":[3.4E1,4.000001E0,4.000001E0,4.932437E-3,2.000001E0,2.000001E0,8.000001E0,8.138004E-2,2.000001E0,2.5E0,3.9941922E-1,6E0,3.5E0,6.88006E-2,4.0227407E-1,-1.2888137E-1,2.555514E-1,8.803028E-2,2.000001E0,6.000001E0,-9.536743E-7,8.869453E-2,3.925958E-1,-2.0971882E-1,2.5E0,-9.536743E-7,8.025607E-1,1.6430931E-1,4.1248456E-1,-3.3779228E-1,7.885873E-1],"split_indices":[2396,2544,2687,0,2167,811,2389,0,1103,0,0,1505,1086,0,0,0,0,0,2485,2874,2391,0,0,0,1086,2390,0,0,0,0,0],"split_type":[0,0,0,0,0,0,0,0,0,0,0,0,0,0,0,0,0,0,0,0,0,0,0,0,0,0,0,0,0,0,0],"sum_hessian":[6.400778E2,1.7751486E2,4.6256293E2,1.1968238E0,1.7631804E2,5.9062378E1,4.0350055E2,1.4822158E0,1.7483583E2,2.955544E0,5.610683E1,2.6663828E1,3.7683673E2,1.009469E0,1.7382635E2,1.483101E0,1.472443E0,2.215598E0,2.444823E1,2.5474838E1,3.5136188E2,1.1920054E0,2.3256226E1,1.0103544E0,2.4464483E1,3.483308E2,3.031063E0,2.7368839E0,2.17276E1,3.4550183E2,2.8289924E0],"tree_param":{"num_deleted":"0","num_feature":"3082","num_nodes":"31","size_leaf_vector":"0"}},{"base_weights":[2.0625774E-2,1.2001965E0,-4.0961936E-1,1.3762222E-2,1.2100565E0,1.1601765E0,-6.300546E-1,2.4237299E-1,1.2222145E0,2.3046544E-1,1.2115524E0,1.0693758E0,-7.496197E-1,1.2284831E0,1.77165E-1,-3.5290283E-1,7.567296E-1,2.3520605E-1,1.1451589E0,1.0631145E0,-8.796585E-1,1.1877589E0,2.2213703E-1,1.2191665E0,-8.5836425E-2,-9.452599E-1,1.4697118E0,-7.820121E-1,6.830462E-1,-9.864032E-1,1.8185298E0],"categories":[],"categories_nodes":[],"categories_segments":[],"categories_sizes":[],"default_left":[0,0,0,0,0,0,0,0,1,1,0,0,0,0,0,0,0,0,1,0,1,0,0,0,1,1,0,0,0,0,0],"id":3,"left_children":[1,3,5,-1,7,9,11,-1,13,15,-1,17,19,-1,-1,-1,-1,-1,21,23,25,-1,-1,-1,27,29,-1,-1,-1,-1,-1],"loss_changes":[2.7283932E2,1.664154E0,1.370569E2,0E0,1.3800812E0,2.054634E0,7.112668E1,0E0,7.0254517E-1,1.4317096E0,0E0,1.1948471E0,7.729588E1,0E0,0E0,0E0,0E0,0E0,5.6088066E-1,4.0734577E0,4.8057938E1,0E0,0E0,0E0,2.451077E0,3.5359894E1,0E0,0E0,0E0,0E0,0E0],"parents":[2147483647,0,0,1,1,2,2,4,4,5,5,6,6,8,8,9,9,11,11,12,12,18,18,19,19,20,20,24,24,25,25],"right_children":[2,4,6,-1,8,10,12,-1,14,16,-1,18,20,-1,-1,-1,-1,-1,22,24,26,-1,-1,-1,28,30,-1,-1,-1,-1,-1],"split_conditions":[3.4E1,4.000001E0,4.000001E0,4.1286666E-3,4.000001E0,2.000001E0,8.000001E0,7.27119E-2,4.35E1,2.5E0,3.6346573E-1,6E0,3.5E0,3.6854494E-1,5.3149503E-2,-1.0587085E-1,2.270189E-1,7.056182E-2,1.4E1,2E1,1.5E0,3.5632768E-1,6.6641115E-2,3.6574996E-1,-9.536743E-7,-9.536743E-7,4.4091356E-1,-2.3460364E-1,2.0491387E-1,-2.9592097E-1,5.45559E-1],"split_indices":[2396,2544,2687,0,2062,811,2389,0,0,0,0,1505,1086,0,0,0,0,0,1065,1451,172,0,0,0,564,1091,0,0,0,0,0],"split_type":[0,0,0,0,0,0,0,0,0,0,0,0,0,0,0,0,0,0,0,0,0,0,0,0,0,0,0,0,0,0,0],"sum_hessian":[5.356409E2,1.4267902E2,3.929619E2,1.1957387E0,1.4148328E2,4.7861374E1,3.4510052E2,2.0153017E0,1.3946799E2,2.7936006E0,4.5067772E1,2.2161774E1,3.2293875E2,1.3846193E2,1.0060601E0,1.4811511E0,1.3124495E0,2.1874514E0,1.9974321E1,2.1135506E1,3.0180325E2,1.881896E1,1.1553621E0,1.8554323E1,2.5811837E0,2.9418634E2,7.6169043E0,1.3456788E0,1.235505E0,2.9050482E2,3.6815228E0],"tree_param":{"num_deleted":"0","num_feature":"3082","num_nodes":"31","size_leaf_vector":"0"}},{"base_weights":[2.79823E-2,1.1201802E0,-3.4838998E-1,1.1420788E0,2.0815358E-1,1.0765488E0,-5.38249E-1,7.1891285E-2,1.1549579E0,7.435076E-1,-6.0306287E-1,1.1267631E0,6.684171E-2,-7.121962E-1,3.7601897E-1,2.737606E-1,1.1441689E0,9.961807E-1,-8.387495E-1,1.1476903E0,-4.4119436E-1,1.8875366E-1,1.0986552E0,-8.7630975E-1,3.268291E0,-7.8375125E-1,1.3398458E0,1.3243303E0,-8.0989397E-1,-9.3105775E-1,1.9862818E0,1.5227132E0,-2.7437097E-1,1.2278425E0,-9.964289E-1],"categories":[],"categories_nodes":[],"categories_segments":[],"categories_sizes":[],"default_left":[0,0,0,0,0,0,1,0,0,0,0,0,0,0,0,0,0,0,1,0,0,0,0,1,0,0,0,0,0,0,0,0,0,0,0],"id":4,"left_children":[1,3,5,7,9,11,13,-1,-1,-1,-1,15,-1,17,19,-1,-1,21,23,25,27,-1,-1,29,-1,-1,31,-1,33,-1,-1,-1,-1,-1,-1],"loss_changes":[1.8169606E2,2.024582E0,8.952733E1,1.4385376E0,2.132939E0,1.9015312E0,4.6513763E1,0E0,0E0,0E0,0E0,2.3729324E-1,0E0,5.3730347E1,3.0231607E1,0E0,0E0,1.2265854E0,3.808574E1,1.0150936E1,1.6444752E1,0E0,0E0,3.743199E1,0E0,0E0,7.110195E0,0E0,8.884916E0,0E0,0E0,0E0,0E0,0E0,0E0],"parents":[2147483647,0,0,1,1,2,2,3,3,4,4,5,5,6,6,11,11,13,13,14,14,17,17,18,18,19,19,20,20,23,23,26,26,28,28],"right_children":[2,4,6,8,10,12,14,-1,-1,-1,-1,16,-1,18,20,-1,-1,22,24,26,28,-1,-1,30,-1,-1,32,-1,34,-1,-1,-1,-1,-1,-1],"split_conditions":[3.4E1,9.1E1,4.000001E0,2.000001E0,2E1,3.4E1,8.5E0,2.1567386E-2,3.4648737E-1,2.230523E-1,-1.8091887E-1,1.5E0,2.0052513E-2,8.000001E0,1.05E1,8.212818E-2,3.4325066E-1,2.000001E0,-9.536743E-7,1.8E1,1.5E0,5.66261E-2,3.2959658E-1,-9.536743E-7,9.8048735E-1,-2.3512538E-1,1.45E1,3.972991E-1,4.000001E0,-2.7931735E-1,5.9588456E-1,4.5681396E-1,-8.2311295E-2,3.6835274E-1,-2.9892868E-1],"split_indices":[2396,0,2687,2167,1030,0,0,0,0,0,0,2433,0,2389,1451,0,0,1505,2392,2815,2208,0,0,2391,0,0,15,0,1798,0,0,0,0,0,0],"split_type":[0,0,0,0,0,0,0,0,0,0,0,0,0,0,0,0,0,0,0,0,0,0,0,0,0,0,0,0,0,0,0,0,0,0,0],"sum_hessian":[4.40055E2,1.1227295E2,3.2778207E2,1.0939405E2,2.8788943E0,3.79897E1,2.8979236E2,1.3791106E0,1.0801494E2,1.7846191E0,1.0942754E0,3.6079483E1,1.9102178E0,2.436558E2,4.6136547E1,1.056009E0,3.5023476E1,1.6330778E1,2.2732503E2,2.3521482E1,2.2615063E1,2.1592631E0,1.41715145E1,2.2604442E2,1.2806165E0,1.8497795E0,2.1671703E1,3.4591184E0,1.9155945E1,2.2246446E2,3.5799556E0,1.9517355E1,2.1543477E0,1.1383258E0,1.8017618E1],"tree_param":{"num_deleted":"0","num_feature":"3082","num_nodes":"35","size_leaf_vector":"0"}},{"base_weights":[3.5281945E-2,1.0626099E0,-2.9332858E-1,-1.3250674E-1,1.0793564E0,1.0056251E0,-4.5624638E-1,4.8125282E-2,1.0984387E0,7.6834664E-2,1.082024E0,1.5932112E0,-5.2195036E-1,1.7508204E-1,1.1080688E0,4.7518063E-1,-4.2544514E-1,8.1937057E-1,2.458976E0,-6.131096E-1,1.0671107E0,1.7301892E-1,9.3892086E-1,-6.637753E-1,2.3142083E0,2.6912951E0,-7.0070904E-1],"categories":[],"categories_nodes":[],"categories_segments":[],"categories_sizes":[],"default_left":[0,0,0,0,0,0,0,0,0,0,0,0,1,0,0,0,0,0,0,1,0,0,0,0,0,0,0],"id":5,"left_children":[1,3,5,-1,7,9,11,-1,13,15,-1,17,19,-1,-1,-1,-1,21,-1,23,-1,-1,-1,25,-1,-1,-1],"loss_changes":[1.228357E2,1.907753E0,5.881648E1,0E0,1.660408E0,2.119728E0,3.391939E1,0E0,5.65712E-1,8.8963234E-1,0E0,3.2642326E0,3.525187E1,0E0,0E0,0E0,0E0,2.749381E-1,0E0,3.5131767E1,0E0,0E0,0E0,2.9573326E1,0E0,0E0,0E0],"parents":[2147483647,0,0,1,1,2,2,4,4,5,5,6,6,8,8,9,9,11,11,12,12,17,17,19,19,23,23],"right_children":[2,4,6,-1,8,10,12,-1,14,16,-1,18,20,-1,-1,-1,-1,22,-1,24,-1,-1,-1,26,-1,-1,-1],"split_conditions":[3.4E1,4.000001E0,4.000001E0,-3.9752025E-2,4.000001E0,2.000001E0,4.000001E0,1.4437585E-2,4.000001E0,4.000001E0,3.246072E-1,8.000001E0,-9.536743E-7,5.2524615E-2,3.3242065E-1,1.425542E-1,-1.2763354E-1,3.5E0,7.3769283E-1,-9.536743E-7,3.201332E-1,5.1905677E-2,2.8167626E-1,1.5E0,6.942625E-1,8.073886E-1,-2.1021272E-1],"split_indices":[2396,2400,2687,0,2062,811,1668,0,2423,317,0,2389,564,0,0,0,0,0,0,2390,0,0,0,1046,0,0,0],"split_type":[0,0,0,0,0,0,0,0,0,0,0,0,0,0,0,0,0,0,0,0,0,0,0,0,0,0,0],"sum_hessian":[3.619365E2,8.717368E1,2.7476282E2,1.1091175E0,8.606456E1,3.00444E1,2.4471843E2,1.62762E0,8.443694E1,2.4359515E0,2.7608448E1,6.879597E0,2.3783884E2,1.0695245E0,8.336742E1,1.3886216E0,1.0473299E0,4.6604195E0,2.219178E0,2.2551588E2,1.2322942E1,1.109442E0,3.5509775E0,2.2243918E2,3.0767086E0,1.6394867E0,2.207997E2],"tree_param":{"num_deleted":"0","num_feature":"3082","num_nodes":"27","size_leaf_vector":"0"}},{"base_weights":[4.4533215E-2,1.0142896E0,-2.2950768E-1,1.0469807E0,2.7786868E-2,9.471364E-1,-3.6075813E-1,-6.3530914E-2,1.0694872E0,5.854489E-1,-5.681504E-1,6.111162E-2,1.0387899E0,9.402723E-1,-4.7028154E-1,4.077721E-1,-3.586434E-1,1.1294426E0,4.7782254E-1,-6.5278494E-1,4.3369934E-1,-2.3779571E-1,7.536856E-1,-7.1781147E-1,1.764845E0,1.0968479E0,-3.4395352E-1,8.641392E-1,2.139771E-1,3.2903543E-1,-8.810601E-1,1.3202099E0,-4.7680628E-1,1.2443719E0,-7.702102E-1],"categories":[],"categories_nodes":[],"categories_segments":[],"categories_sizes":[],"default_left":[0,0,0,0,0,0,0,0,0,0,0,0,0,1,1,0,0,0,0,1,0,0,0,0,0,0,0,0,0,0,0,0,0,0,0],"id":6,"left_children":[1,3,5,7,9,11,13,-1,-1,-1,-1,15,-1,17,19,-1,-1,-1,21,23,25,-1,27,29,-1,31,33,-1,-1,-1,-1,-1,-1,-1,-1],"loss_changes":[8.247453E1,2.1757812E0,3.7730232E1,1.7212143E0,1.4027988E0,1.9318638E0,3.1580938E1,0E0,0E0,0E0,0E0,6.360319E-1,0E0,9.7386265E-1,3.364639E1,0E0,0E0,0E0,1.5129308E0,2.7781342E1,1.8205029E1,0E0,1.2007594E-1,2.8479248E1,0E0,7.2718334E0,1.2246363E1,0E0,0E0,0E0,0E0,0E0,0E0,0E0,0E0],"parents":[2147483647,0,0,1,1,2,2,3,3,4,4,5,5,6,6,11,11,13,13,14,14,18,18,19,19,20,20,22,22,23,23,25,25,26,26],"right_children":[2,4,6,8,10,12,14,-1,-1,-1,-1,16,-1,18,20,-1,-1,-1,22,24,26,-1,28,30,-1,32,34,-1,-1,-1,-1,-1,-1,-1,-1],"split_conditions":[3.4E1,9.1E1,4.000001E0,2.000001E0,2E1,2.000001E0,8.000001E0,-1.9059274E-2,3.2084617E-1,1.7563468E-1,-1.7044513E-1,4.000001E0,3.1163698E-1,1.5E0,8.5E0,1.22331634E-1,-1.0759303E-1,3.388328E-1,2.2E1,-9.536743E-7,1.05E1,-7.133871E-2,5.5E0,1.5E0,5.294535E-1,1.45E1,1.5E0,2.5924176E-1,6.419313E-2,9.8710634E-2,-2.6431805E-1,3.9606297E-1,-1.430419E-1,3.7331158E-1,-2.3106307E-1],"split_indices":[2396,0,2687,2167,1030,811,2389,0,0,0,0,317,0,1065,0,0,0,0,1505,1091,1451,0,1065,1505,0,15,2208,0,0,0,0,0,0,0,0],"split_type":[0,0,0,0,0,0,0,0,0,0,0,0,0,0,0,0,0,0,0,0,0,0,0,0,0,0,0,0,0,0,0,0,0,0,0],"sum_hessian":[3.0846698E2,6.736815E1,2.4109883E2,6.514794E1,2.220204E0,2.3571045E1,2.1752779E2,1.2579017E0,6.389004E1,1.1560259E0,1.0641781E0,2.3659463E0,2.12051E1,1.6301142E1,2.0122664E2,1.3114307E0,1.0545155E0,1.0545202E1,5.7559385E0,1.6765657E2,3.357007E1,1.6398877E0,4.1160507E0,1.6394994E2,3.7066386E0,1.7897446E1,1.5672622E1,2.9177904E0,1.1982604E0,2.1980755E1,1.4196918E2,1.5813901E1,2.0835457E0,2.9100053E0,1.2762616E1],"tree_param":{"num_deleted":"0","num_feature":"3082","num_nodes":"35","size_leaf_vector":"0"}},{"base_weights":[4.722329E-2,9.7418797E-1,-1.907016E-1,1.0128727E0,2.7617792E-2,4.455887E-1,-3.872341E-1,-8.902553E-2,1.0452048E0,1.9168347E-1,-1.5425564E-1,-8.822677E-1,7.8427315E-1,3.0640087E0,-4.372339E-1,-1.9184434E-1,-9.4258803E-1,-2.3544991E-1,1.1343262E0,1.749275E0,-5.0447834E-1,-6.278163E-1,8.629781E-1,-5.1788294E-1,1.2482686E0,2.442119E0,8.546958E-1,8.2190055E-1,-6.241665E-1,2.6983398E-1,-8.03762E-1,1.977172E-1,1.3009531E0,1.050718E0,2.35434E-1,2.5388944E-1,-8.170218E-1],"categories":[],"categories_nodes":[],"categories_segments":[],"categories_sizes":[],"default_left":[0,0,0,0,0,1,0,0,0,0,0,0,0,0,0,0,0,1,0,0,0,0,0,0,0,0,0,1,0,0,0,0,0,0,0,0,0],"id":7,"left_children":[1,3,5,7,9,11,13,-1,-1,-1,-1,15,17,-1,19,-1,-1,21,23,25,27,29,-1,-1,31,-1,-1,33,35,-1,-1,-1,-1,-1,-1,-1,-1],"loss_changes":[5.7026955E1,1.9055824E0,2.5923626E1,1.8993988E0,1.2210839E-1,2.2755192E1,2.8580904E1,0E0,0E0,0E0,0E0,2.5399113E-1,1.4409269E1,0E0,2.3890495E1,0E0,0E0,5.262331E0,6.2312546E0,9.453182E-1,2.473724E1,1.5828898E0,0E0,0E0,1.2950172E0,0E0,0E0,1.5053768E0,2.400455E1,0E0,0E0,0E0,0E0,0E0,0E0,0E0,0E0],"parents":[2147483647,0,0,1,1,2,2,3,3,4,4,5,5,6,6,11,11,12,12,14,14,17,17,18,18,19,19,20,20,21,21,24,24,27,27,28,28],"right_children":[2,4,6,8,10,12,14,-1,-1,-1,-1,16,18,-1,20,-1,-1,22,24,26,28,30,-1,-1,32,-1,-1,34,36,-1,-1,-1,-1,-1,-1,-1,-1],"split_conditions":[3.4E1,9.1E1,3.5E0,4.000001E0,3.52E2,1.5E0,1.5E0,-2.6707659E-2,3.1356144E-1,5.7505045E-2,-4.6276696E-2,8.000001E0,6.5E0,9.192026E-1,6.000001E0,-5.7553306E-2,-2.8277642E-1,-9.536743E-7,2.000001E0,4.5E0,8.000001E0,4.000001E0,2.5889343E-1,-1.5536489E-1,3E0,7.326357E-1,2.5640875E-1,1.5E0,1.5E0,8.09502E-2,-2.4112861E-1,5.9315164E-2,3.9028597E-1,3.152154E-1,7.06302E-2,7.616684E-2,-2.4510655E-1],"split_indices":[2396,0,1451,2062,1065,0,1798,0,0,0,0,2874,15,0,1819,0,0,564,1477,1065,2389,2023,0,0,1171,0,0,1065,1505,0,0,0,0,0,0,0,0],"split_type":[0,0,0,0,0,0,0,0,0,0,0,0,0,0,0,0,0,0,0,0,0,0,0,0,0,0,0,0,0,0,0,0,0,0,0,0,0],"sum_hessian":[2.5672702E2,5.1803608E1,2.0492342E2,4.9702312E1,2.101295E0,4.8059505E1,1.568639E2,1.3668176E0,4.8335495E1,1.0763736E0,1.0249215E0,9.440765E0,3.861874E1,1.3792684E0,1.5548463E2,1.0944271E0,8.346338E0,9.952876E0,2.8665863E1,3.8928163E0,1.5159183E2,7.6490293E0,2.3038473E0,1.6206514E0,2.7045212E1,1.2188889E0,2.6739273E0,1.2061358E1,1.3953046E2,1.1661047E0,6.4829245E0,1.5185024E0,2.552671E1,8.106786E0,3.9545734E0,2.5070387E1,1.14460075E2],"tree_param":{"num_deleted":"0","num_feature":"3082","num_nodes":"37","size_leaf_vector":"0"}},{"base_weights":[5.0968163E-2,9.32506E-1,-1.5077992E-1,9.8051363E-1,2.3595288E-2,8.4403795E-1,-2.5237334E-1,-1.5544255E-1,1.0192318E0,1.6544311E-1,-1.294359E-1,-6.191052E-1,1.1818106E0,1.4460487E0,-3.1197786E-1,1.2644117E0,2.65515E-1,1.5803959E0,-3.6951035E-1,2.1650279E0,8.306363E-1,-4.5207483E-1,1.0030344E0,-5.1292473E-1,1.4827842E0],"categories":[],"categories_nodes":[],"categories_segments":[],"categories_sizes":[],"default_left":[0,0,0,0,0,0,0,0,0,0,0,0,0,0,0,0,0,0,1,0,0,1,0,0,0],"id":8,"left_children":[1,3,5,7,9,11,13,-1,-1,-1,-1,-1,15,-1,17,-1,-1,19,21,-1,-1,23,-1,-1,-1],"loss_changes":[3.9162903E1,1.765976E0,1.8345535E1,1.8702316E0,8.830896E-2,9.061273E0,1.7008568E1,0E0,0E0,0E0,0E0,0E0,7.266998E-1,0E0,1.7876688E1,0E0,0E0,3.3893394E-1,1.8013815E1,0E0,0E0,1.805066E1,0E0,0E0,0E0],"parents":[2147483647,0,0,1,1,2,2,3,3,4,4,5,5,6,6,12,12,14,14,17,17,18,18,21,21],"right_children":[2,4,6,8,10,12,14,-1,-1,-1,-1,-1,16,-1,18,-1,-1,20,22,-1,-1,24,-1,-1,-1],"split_conditions":[3.4E1,9.1E1,1.5E0,2.000001E0,3.52E2,1.15E1,2.000001E0,-4.6632767E-2,3.0576956E-1,4.9632933E-2,-3.8830772E-2,-1.8573157E-1,2.000001E0,4.3381464E-1,6.000001E0,3.793235E-1,7.96545E-2,4.5E0,-9.536743E-7,6.4950836E-1,2.4919091E-1,-9.536743E-7,3.0091032E-1,-1.5387742E-1,4.4483528E-1],"split_indices":[2396,0,3036,2167,1065,15,2658,0,0,0,0,0,3053,0,1819,0,0,1065,564,0,0,2391,0,0,0],"split_type":[0,0,0,0,0,0,0,0,0,0,0,0,0,0,0,0,0,0,0,0,0,0,0,0,0],"sum_hessian":[2.1841306E2,4.0002052E1,1.7841101E2,3.792036E1,2.0816905E0,1.5854396E1,1.6255661E2,1.1505166E0,3.6769844E1,1.0382279E0,1.0434625E0,2.8173711E0,1.30370245E1,4.722719E0,1.578339E2,1.1610462E1,1.4265622E0,3.8759365E0,1.5395796E2,1.1171774E0,2.7587593E0,1.458548E2,8.103165E0,1.4212012E2,3.7346718E0],"tree_param":{"num_deleted":"0","num_feature":"3082","num_nodes":"25","size_leaf_vector":"0"}},{"base_weights":[6.014563E-2,9.4965315E-1,-9.3321964E-2,-8.686233E-2,1.060582E0,8.966007E-1,-1.9004193E-1,-9.490143E-1,6.451694E-1,2.9651162E-1,1.0968676E0,9.832125E-1,6.051068E-2,8.610667E-1,-2.9076633E-1,1.6154227E-1,9.6698326E-1,-3.3983994E-1,2.1010928E0,1.0401362E0,1.05936155E-1,-5.3559345E-1,3.6851904E-1,-6.208854E-1,1.5637829E0,-9.0337765E-1,6.563285E-1],"categories":[],"categories_nodes":[],"categories_segments":[],"categories_sizes":[],"default_left":[0,0,0,1,0,0,0,0,0,0,0,0,0,0,1,0,1,1,0,0,0,1,0,0,0,0,0],"id":9,"left_children":[1,3,5,7,9,11,13,-1,-1,-1,-1,-1,-1,15,17,-1,19,21,-1,-1,-1,23,25,-1,-1,-1,-1],"loss_changes":[2.6463003E1,3.3711433E0,1.6034008E1,2.9356253E0,3.910885E-1,1.0211039E0,1.631791E1,0E0,0E0,0E0,0E0,0E0,0E0,8.4577847E-1,1.7057598E1,0E0,6.1699486E-1,1.9236069E1,0E0,0E0,0E0,2.0305998E1,1.1692001E1,0E0,0E0,0E0,0E0],"parents":[2147483647,0,0,1,1,2,2,3,3,4,4,5,5,6,6,13,13,14,14,16,16,17,17,21,21,22,22],"right_children":[2,4,6,8,10,12,14,-1,-1,-1,-1,-1,-1,16,18,-1,20,22,-1,-1,-1,24,26,-1,-1,-1,-1],"split_conditions":[4.000001E0,2.000001E0,4.000001E0,3.5E0,1.5E0,3.4E1,8.000001E0,-2.847043E-1,1.9355083E-1,8.895349E-2,3.290603E-1,2.9496375E-1,1.8153206E-2,2.000001E0,-9.536743E-7,4.846268E-2,5.5E0,7.5E0,6.303279E-1,3.1204087E-1,3.1780846E-2,-9.536743E-7,3.8E1,-1.8626562E-1,4.691349E-1,-2.7101332E-1,1.9689856E-1],"split_indices":[1668,110,2687,2396,1505,0,2389,0,0,0,0,0,0,110,2392,0,1065,0,0,0,0,2390,2815,0,0,0,0],"split_type":[0,0,0,0,0,0,0,0,0,0,0,0,0,0,0,0,0,0,0,0,0,0,0,0,0,0,0],"sum_hessian":[1.9220393E2,2.7518288E1,1.6468564E2,2.6812978E0,2.483699E1,1.3922248E1,1.507634E2,1.0951138E0,1.586184E0,1.5418379E0,2.3295153E1,1.2455953E1,1.4662949E0,1.2523699E1,1.3823969E2,1.9789487E0,1.054475E1,1.3630113E2,1.9385636E0,9.527335E0,1.0174147E0,1.0698104E2,2.9320091E1,1.0348113E2,3.499903E0,5.015708E0,2.4304382E1],"tree_param":{"num_deleted":"0","num_feature":"3082","num_nodes":"27","size_leaf_vector":"0"}},{"base_weights":[6.154468E-2,8.6824447E-1,-9.0423726E-2,-1.8578E-1,9.2000407E-1,1.6663601E0,-1.4688353E-1,9.8791045E-1,1.5020633E-1,2.232751E0,4.1310215E-1,1.879879E0,-1.9110425E-1,5.8837694E-1,-3.7248534E-1,-2.4896054E-1,1.3677115E0,1.5201877E0,-2.9929665E-1,-3.5570392E-1,1.3153293E0],"categories":[],"categories_nodes":[],"categories_segments":[],"categories_sizes":[],"default_left":[0,0,0,0,0,0,0,0,0,0,0,0,1,0,0,0,0,0,1,0,0],"id":10,"left_children":[1,3,5,-1,7,9,11,-1,13,-1,-1,-1,15,-1,-1,17,-1,-1,19,-1,-1],"loss_changes":[2.076148E1,1.6351299E0,1.4416094E1,0E0,1.1976948E0,2.2930079E0,1.2847964E1,0E0,9.6732867E-1,0E0,0E0,0E0,1.2721114E1,0E0,0E0,1.2317594E1,0E0,0E0,1.2340633E1,0E0,0E0],"parents":[2147483647,0,0,1,1,2,2,4,4,5,5,6,6,8,8,12,12,15,15,18,18],"right_children":[2,4,6,-1,8,10,12,-1,14,-1,-1,-1,16,-1,-1,18,-1,-1,20,-1,-1],"split_conditions":[3.4E1,4.000001E0,1.5E0,-5.5734005E-2,9.1E1,4.000001E0,6.000001E0,2.9637316E-1,2E1,6.698253E-1,1.2393065E-1,5.639637E-1,-9.536743E-7,1.7651309E-1,-1.117456E-1,6.000001E0,4.103135E-1,4.5605633E-1,-9.536743E-7,-1.0671118E-1,3.945988E-1],"split_indices":[2396,2062,1046,0,0,1241,1538,0,1030,0,0,0,2401,0,0,1819,0,0,2391,0,0],"split_type":[0,0,0,0,0,0,0,0,0,0,0,0,0,0,0,0,0,0,0,0,0],"sum_hessian":[1.6771266E2,2.583871E1,1.4187396E2,1.0882598E0,2.475045E1,3.529738E0,1.3834422E2,2.2483747E1,2.2667027E0,1.8927712E0,1.6369666E0,2.067628E0,1.362766E2,1.1646844E0,1.1020184E0,1.3220984E2,4.066751E0,2.8497505E0,1.2936009E2,1.25746796E2,3.6132913E0],"tree_param":{"num_deleted":"0","num_feature":"3082","num_nodes":"21","size_leaf_vector":"0"}},{"base_weights":[6.7872636E-2,1.0547143E0,-3.553069E-2,2.9513028E-1,1.0882615E0,-3.4516865E-1,2.8956306E-1,3.740288E-1,-6.299748E-1,-5.9284097E-1,4.6942753E-1,-6.2809294E-1,1.0300065E0,9.008626E-1,-8.1050223E-1,6.767786E-1,-8.2016605E-1,-2.9838353E-1,6.414396E-1,-9.3243736E-1,7.550088E-1,-5.9272066E-2,1.1579751E0,-9.1193664E-1,1.0095352E0,2.0022978E-1,-9.53392E-1,7.273799E-1,-5.7401043E-1,-6.0768527E-1,7.452932E-1,-2.680086E-1,-1.0491533E0,3.0153295E-1,-1.0004635E0,5.2171844E-1,-8.077624E-1,-6.105139E-1,7.9844415E-1],"categories":[],"categories_nodes":[],"categories_segments":[],"categories_sizes":[],"default_left":[0,0,1,0,0,0,0,0,0,0,0,1,0,0,1,0,0,0,0,0,0,0,0,0,0,0,0,0,0,0,0,0,0,0,0,0,0,0,0],"id":11,"left_children":[1,3,5,-1,-1,7,9,11,13,15,17,19,21,-1,23,-1,25,27,29,31,-1,-1,-1,33,-1,-1,-1,-1,35,-1,37,-1,-1,-1,-1,-1,-1,-1,-1],"loss_changes":[1.6057314E1,5.9070587E-2,1.450149E1,0E0,0E0,1.5338429E1,1.1441627E1,1.4808812E1,1.5429485E1,4.1198783E0,7.9817314E0,4.5531263E0,1.9363823E0,0E0,9.801508E0,0E0,1.6764588E0,3.6627696E0,6.7455025E0,3.3474302E-1,0E0,0E0,0E0,5.2529793E0,0E0,0E0,0E0,0E0,2.8818514E0,0E0,3.747036E0,0E0,0E0,0E0,0E0,0E0,0E0,0E0,0E0],"parents":[2147483647,0,0,1,1,2,2,5,5,6,6,7,7,8,8,9,9,10,10,11,11,12,12,14,14,16,16,17,17,18,18,19,19,23,23,28,28,30,30],"right_children":[2,4,6,-1,-1,8,10,12,14,16,18,20,22,-1,24,-1,26,28,30,32,-1,-1,-1,34,-1,-1,-1,-1,36,-1,38,-1,-1,-1,-1,-1,-1,-1,-1],"split_conditions":[8.000001E0,2.5E0,2.5E0,8.853909E-2,3.2647845E-1,1.5E0,3.8E1,1.4000001E1,1.2000001E1,8.000001E0,1.6E1,-9.536743E-7,4.000001E0,2.7025878E-1,-9.536743E-7,2.030336E-1,6.000001E0,1.5E0,2.8E1,1.5E0,2.2650266E-1,-1.778162E-2,3.4739253E-1,4.000001E0,3.0286056E-1,6.0068935E-2,-2.8601763E-1,2.1821399E-1,4.000001E0,-1.8230559E-1,6.000001E0,-8.040258E-2,-3.1474602E-1,9.045989E-2,-3.0013907E-1,1.5651554E-1,-2.4232872E-1,-1.8315418E-1,2.3953326E-1],"split_indices":[2658,2669,0,0,0,1505,2815,1065,2389,2028,2357,1228,0,0,1091,0,2687,2120,2433,1063,0,0,0,2687,0,0,0,0,1997,0,1907,0,0,0,0,0,0,0,0],"split_type":[0,0,0,0,0,0,0,0,0,0,0,0,0,0,0,0,0,0,0,0,0,0,0,0,0,0,0,0,0,0,0,0,0,0,0,0,0,0,0],"sum_hessian":[1.5599152E2,1.3922312E1,1.420692E2,1.0032805E0,1.2919031E1,7.273267E1,6.9336525E1,2.0543245E1,5.218943E1,1.1351368E1,5.7985157E1,8.14414E0,1.2399104E1,5.0844145E0,4.7105015E1,1.4235644E0,9.927804E0,1.0478331E1,4.750683E1,6.9423485E0,1.201792E0,1.3599471E0,1.1039157E1,4.5090954E1,2.0140646E0,1.0884305E0,8.839374E0,1.8721186E0,8.606212E0,3.2742E0,4.4232628E1,1.5298164E0,5.4125323E0,2.9022763E0,4.2188675E1,1.2965602E0,7.309652E0,1.2730279E0,4.29596E1],"tree_param":{"num_deleted":"0","num_feature":"3082","num_nodes":"39","size_leaf_vector":"0"}},{"base_weights":[5.310962E-2,9.8180956E-1,-3.754655E-2,-8.0878145E-1,6.85484E-2,4.4268828E-2,-9.2293435E-1,7.305981E-1,-7.630536E-2,-5.48556E-1,8.9006746E-1,7.294279E-1,-1.8656826E-1,1.1158799E0,1.808313E-1,1.1822079E-2,8.6658233E-1,-2.4617673E-1,1.3245783E0,3.5294172E-1,1.1591734E0,5.673148E-1,-4.3643337E-1,1.659477E-1,9.358181E-1,1.2538606E0,-3.1143814E-1],"categories":[],"categories_nodes":[],"categories_segments":[],"categories_sizes":[],"default_left":[0,0,0,0,0,0,0,0,0,0,0,0,1,0,0,0,0,0,0,0,0,0,0,0,0,0,0],"id":12,"left_children":[1,-1,3,5,7,-1,-1,9,11,-1,13,15,17,19,21,-1,23,25,-1,-1,-1,-1,-1,-1,-1,-1,-1],"loss_changes":[1.1474471E1,0E0,1.0261542E1,1.5172958E0,1.0659478E1,0E0,0E0,4.556531E0,8.276398E0,0E0,2.6993275E0,1.0953574E0,7.657742E0,3.832245E-2,1.5759126E0,0E0,3.0150604E-1,8.13862E0,0E0,0E0,0E0,0E0,0E0,0E0,0E0,0E0,0E0],"parents":[2147483647,0,0,2,2,3,3,4,4,7,7,8,8,10,10,11,11,12,12,13,13,14,14,16,16,17,17],"right_children":[2,-1,4,6,8,-1,-1,10,12,-1,14,16,18,20,22,-1,24,26,-1,-1,-1,-1,-1,-1,-1,-1,-1],"split_conditions":[8.000001E0,2.9454288E-1,2.8E1,4.000001E0,3.5E0,1.3280649E-2,-2.7688032E-1,6.5E0,1.2000001E1,-1.6456681E-1,3.5E0,6E0,-9.536743E-7,8.5E0,2E1,3.546624E-3,6E0,6.000001E0,3.973735E-1,1.0588252E-1,3.4775203E-1,1.7019445E-1,-1.3093002E-1,4.9784314E-2,2.8074545E-1,3.761582E-1,-9.343144E-2],"split_indices":[2658,0,2433,2687,3036,0,0,2815,2389,0,3053,1505,2392,15,1451,0,2918,1819,0,0,0,0,0,0,0,0,0],"split_type":[0,0,0,0,0,0,0,0,0,0,0,0,0,0,0,0,0,0,0,0,0,0,0,0,0,0,0],"sum_hessian":[1.3485086E2,1.1118694E1,1.2373217E2,1.4161917E1,1.0957025E2,1.7436953E0,1.2418221E1,1.8943926E1,9.062633E1,1.8294492E0,1.7114477E1,1.0233184E1,8.039314E1,1.2546473E1,4.568004E0,1.816303E0,8.416881E0,7.814764E1,2.2455077E0,1.1651928E0,1.138128E1,2.8589017E0,1.7091023E0,1.0624285E0,7.354452E0,2.4988368E0,7.56488E1],"tree_param":{"num_deleted":"0","num_feature":"3082","num_nodes":"27","size_leaf_vector":"0"}},{"base_weights":[5.660512E-2,9.6093804E-1,-2.667239E-2,1.0319886E0,1.4748444E-1,7.562519E-1,-1.040377E-1,-7.4785925E-2,9.228627E-1,8.544997E-1,-1.768012E-1,9.415934E-1,1.5160713E-1,-2.3505612E-1,1.1773889E0,6.628029E-1,-3.322845E-1,9.542032E-3,8.143861E-1,1.0206071E0,-4.004958E-1],"categories":[],"categories_nodes":[],"categories_segments":[],"categories_sizes":[],"default_left":[0,1,0,0,0,0,0,0,0,0,1,0,0,0,0,0,0,0,0,0,0],"id":13,"left_children":[1,3,5,-1,-1,7,9,-1,-1,11,13,-1,-1,15,-1,17,19,-1,-1,-1,-1],"loss_changes":[9.288918E0,4.488058E-1,6.95971E0,0E0,0E0,1.5002956E0,7.4232173E0,0E0,0E0,3.1808615E-1,7.9870815E0,0E0,0E0,8.473325E0,0E0,9.4000816E-1,8.342143E0,0E0,0E0,0E0,0E0],"parents":[2147483647,0,0,1,1,2,2,5,5,6,6,9,9,10,10,13,13,15,15,16,16],"right_children":[2,4,6,-1,-1,8,10,-1,-1,12,14,-1,-1,16,-1,18,20,-1,-1,-1,-1],"split_conditions":[1.2000001E1,2.5E0,6.000001E0,3.095966E-1,4.4245332E-2,2.000001E0,3.5E0,-2.2435779E-2,2.7685884E-1,9E0,-9.536743E-7,2.8247803E-1,4.548214E-2,1.2000001E1,3.5321668E-1,6E0,4.000001E0,2.8626097E-3,2.4431585E-1,3.0618215E-1,-1.2014874E-1],"split_indices":[2843,2874,2687,0,0,811,1086,0,0,1451,2390,0,0,2389,0,1505,2013,0,0,0,0],"split_type":[0,0,0,0,0,0,0,0,0,0,0,0,0,0,0,0,0,0,0,0,0],"sum_hessian":[1.2200113E2,9.398736E0,1.12602394E2,8.396683E0,1.002053E0,9.337127E0,1.0326527E2,1.6513743E0,7.6857524E0,6.5278773E0,9.673739E1,5.506039E0,1.021838E0,9.353989E1,3.1975007E0,8.571268E0,8.496862E1,1.8144954E0,6.7567725E0,3.4082127E0,8.156041E1],"tree_param":{"num_deleted":"0","num_feature":"3082","num_nodes":"21","size_leaf_vector":"0"}},{"base_weights":[6.596797E-2,9.165724E-1,-1.1083848E-2,2.582933E-1,9.655827E-1,-2.6922575E-1,2.4090344E-1,3.417542E-1,-5.9171593E-1,-5.6657237E-1,3.7842774E-1,-4.8284137E-1,7.767424E-1,7.385985E-1,-7.210468E-1,-8.387308E-1,7.902637E-2,7.283554E-2,6.381913E-1,-8.097327E-1,6.744435E-1,-1.0752222E-1,8.6531085E-1,-8.298409E-1,8.001361E-1,5.1226693E-1,-4.401021E-1,-4.4397977E-1,4.0798292E-1,9.6769845E-1,8.3972495E-3,-1.23053916E-1,-9.573294E-1,1.5577771E-1,-9.235613E-1,5.6739366E-1,-6.7216516E-1,-3.154142E-1,7.291532E-1,1.0628791E0,-8.358432E-2,7.306437E-1,-3.3197066E-1],"categories":[],"categories_nodes":[],"categories_segments":[],"categories_sizes":[],"default_left":[0,0,1,0,0,0,0,0,0,0,0,1,0,0,1,0,0,1,1,0,0,0,0,0,0,0,0,0,1,1,0,0,0,0,0,0,0,0,0,0,0,0,0],"id":14,"left_children":[1,3,5,-1,-1,7,9,11,13,15,17,19,21,-1,23,-1,25,27,29,31,-1,-1,-1,33,-1,-1,-1,35,37,39,41,-1,-1,-1,-1,-1,-1,-1,-1,-1,-1,-1,-1],"loss_changes":[7.2629952E0,4.752779E-2,6.729602E0,0E0,0E0,1.0267406E1,6.03051E0,6.932546E0,6.348116E0,1.4758732E0,3.553668E0,3.1678457E0,1.0603981E0,0E0,5.84606E0,0E0,9.660561E-1,3.9860008E0,5.0524015E0,4.759357E-1,0E0,0E0,0E0,2.8885708E0,0E0,0E0,0E0,2.4861612E0,3.4470177E0,1.6898994E0,2.549628E0,0E0,0E0,0E0,0E0,0E0,0E0,0E0,0E0,0E0,0E0,0E0,0E0],"parents":[2147483647,0,0,1,1,2,2,5,5,6,6,7,7,8,8,9,9,10,10,11,11,12,12,14,14,16,16,17,17,18,18,19,19,23,23,27,27,28,28,29,29,30,30],"right_children":[2,4,6,-1,-1,8,10,12,14,16,18,20,22,-1,24,-1,26,28,30,32,-1,-1,-1,34,-1,-1,-1,36,38,40,42,-1,-1,-1,-1,-1,-1,-1,-1,-1,-1,-1,-1],"split_conditions":[8.000001E0,6.5E0,2.5E0,7.748799E-2,2.8967482E-1,1.5E0,3.8E1,1.4000001E1,1.2000001E1,4.6E1,7.5E0,-9.536743E-7,4.000001E0,2.2157957E-1,-9.536743E-7,-2.5161925E-1,8.000001E0,1.5E0,1.05E1,1.5E0,2.0233305E-1,-3.2256667E-2,2.5959328E-1,8.000001E0,2.4004084E-1,1.5368009E-1,-1.3203064E-1,4.000001E0,2.5E0,1.15E1,3.5E0,-3.6916178E-2,-2.8719884E-1,4.6733312E-2,-2.770684E-1,1.7021811E-1,-2.0164956E-1,-9.462426E-2,2.1874598E-1,3.1886375E-1,-2.5075298E-2,2.1919312E-1,-9.95912E-2],"split_indices":[2658,2874,0,0,0,1505,2815,1065,2389,2874,15,1228,0,0,1091,0,966,1063,15,1063,0,0,0,2396,0,0,0,2687,1065,1065,1086,0,0,0,0,0,0,0,0,0,0,0,0],"split_type":[0,0,0,0,0,0,0,0,0,0,0,0,0,0,0,0,0,0,0,0,0,0,0,0,0,0,0,0,0,0,0,0,0,0,0,0,0,0,0,0,0,0,0],"sum_hessian":[1.09661705E2,8.203592E0,1.01458115E2,1.002934E0,7.2006583E0,5.008323E1,5.1374886E1,1.7281845E1,3.2801384E1,7.0224833E0,4.43524E1,5.9301696E0,1.1351675E1,2.4889355E0,3.0312449E1,4.7295456E0,2.2929378E0,2.0966862E1,2.338554E1,4.8582153E0,1.071954E0,1.0139939E0,1.0337681E1,2.8713362E1,1.5990858E0,1.2570661E0,1.0358715E0,8.120257E0,1.2846605E1,1.5000679E1,8.384862E0,1.1839105E0,3.674305E0,2.435723E0,2.627764E1,1.2211732E0,6.8990846E0,3.9554212E0,8.891184E0,1.3745191E1,1.2554883E0,2.3184915E0,6.06637E0],"tree_param":{"num_deleted":"0","num_feature":"3082","num_nodes":"43","size_leaf_vector":"0"}},{"base_weights":[5.6865945E-2,7.1180826E-1,-3.5014067E-2,8.195344E-1,-1.3525744E-1,-7.148549E-1,4.2304046E-2,-2.9965028E-2,9.1384804E-1,2.1163897E-1,-8.9325744E-1,-4.6392012E-1,1.648361E-1,7.9956573E-1,-7.555728E-1,-8.646067E-1,2.4939437E-1,1.3860618E-1,1.1198097E0,1.7608541E-1,-8.5452974E-1,-3.6083944E-2,4.2442158E-1,-8.989415E-2,-9.281442E-1,4.8945576E-1,-5.7312244E-1,-2.2153594E-1,5.946858E-1],"categories":[],"categories_nodes":[],"categories_segments":[],"categories_sizes":[],"default_left":[0,0,0,0,0,0,0,0,0,0,0,0,0,1,0,0,1,0,0,0,0,0,0,0,0,0,0,0,0],"id":15,"left_children":[1,3,5,7,-1,9,11,-1,-1,-1,-1,13,15,17,19,-1,21,-1,-1,-1,23,25,27,-1,-1,-1,-1,-1,-1],"loss_changes":[5.915556E0,1.2140818E0,4.5927877E0,8.9809227E-1,0E0,1.6633472E0,4.969311E0,0E0,0E0,0E0,0E0,6.3653755E0,5.808102E0,5.682576E-1,1.3689451E0,0E0,3.0205717E0,0E0,0E0,0E0,5.9868145E-1,6.9924927E0,4.2411623E0,0E0,0E0,0E0,0E0,0E0,0E0],"parents":[2147483647,0,0,1,1,2,2,3,3,5,5,6,6,11,11,12,12,13,13,14,14,16,16,20,20,21,21,22,22],"right_children":[2,4,6,8,-1,10,12,-1,-1,-1,-1,14,16,18,20,-1,22,-1,-1,-1,24,26,28,-1,-1,-1,-1,-1,-1],"split_conditions":[3.4E1,9.1E1,2.8E1,1.5E0,-4.0577233E-2,4.000001E0,3.5E0,-8.989509E-3,2.7415442E-1,6.3491695E-2,-2.6797724E-1,2.000001E0,4.000001E0,-9.536743E-7,2.000001E0,-2.59382E-1,1.5E0,4.1581854E-2,3.3594292E-1,5.2825626E-2,2.5E0,1.5E0,7.8E1,-2.6968246E-2,-2.7844328E-1,1.4683673E-1,-1.7193674E-1,-6.646078E-2,1.7840575E-1],"split_indices":[2396,0,2433,317,0,2687,15,0,0,0,0,317,1815,218,2389,0,0,0,0,0,966,1505,2874,0,0,0,0,0,0],"split_type":[0,0,0,0,0,0,0,0,0,0,0,0,0,0,0,0,0,0,0,0,0,0,0,0,0,0,0,0,0],"sum_hessian":[9.688989E1,1.10900755E1,8.579982E1,9.867652E0,1.2224233E0,7.9195304E0,7.788029E1,1.0542369E0,8.813416E0,1.2486492E0,6.6708813E0,1.4634357E1,6.3245934E1,2.417943E0,1.2216414E1,4.1004615E0,5.914547E1,1.2568055E0,1.1611376E0,1.098151E0,1.1118264E1,2.2781507E1,3.6363964E1,1.1714569E0,9.946807E0,1.15588E1,1.1222707E1,7.522724E0,2.884124E1],"tree_param":{"num_deleted":"0","num_feature":"3082","num_nodes":"29","size_leaf_vector":"0"}},{"base_weights":[3.8729202E-2,8.217189E-1,-2.3090243E-2,1.8020408E-1,9.053481E-1,6.902221E-1,-9.013913E-2,-5.6651365E-3,8.6509395E-1,1.0416145E0,-1.3778426E-1,-8.460754E-1,-5.0648317E-2,-6.492303E-1,3.8004994E-2,4.7899157E-1,-8.6949086E-1,-1.50370505E-2,9.041473E-1],"categories":[],"categories_nodes":[],"categories_segments":[],"categories_sizes":[],"default_left":[0,0,0,0,0,0,0,0,0,0,0,0,0,0,1,0,0,0,0],"id":16,"left_children":[1,3,5,-1,-1,7,9,-1,-1,-1,11,-1,13,15,17,-1,-1,-1,-1],"loss_changes":[4.347191E0,1.8936062E-1,4.072397E0,0E0,0E0,8.956504E-1,4.324039E0,0E0,0E0,0E0,4.603216E0,0E0,3.638305E0,2.6131816E0,2.7819111E0,0E0,0E0,0E0,0E0],"parents":[2147483647,0,0,1,1,2,2,5,5,6,6,10,10,12,12,13,13,14,14],"right_children":[2,4,6,-1,-1,8,10,-1,-1,-1,12,-1,14,16,18,-1,-1,-1,-1],"split_conditions":[1.2000001E1,1.65E1,6.000001E0,5.4061227E-2,2.7160445E-1,2.000001E0,1.6E1,-1.699541E-3,2.595282E-1,3.1248438E-1,8.000001E0,-2.5382262E-1,1.6E1,6.000001E0,-9.536743E-7,1.4369747E-1,-2.6084727E-1,-4.511115E-3,2.712442E-1],"split_indices":[2843,1857,2687,0,0,811,1538,0,0,0,811,0,2357,1086,2391,0,0,0,0],"split_type":[0,0,0,0,0,0,0,0,0,0,0,0,0,0,0,0,0,0,0],"sum_hessian":[8.84186E1,5.570595E0,8.284801E1,1.0062802E0,4.564315E0,6.3197575E0,7.6528244E1,1.4634985E0,4.856259E0,2.248797E0,7.427945E1,7.1828957E0,6.709656E1,7.8397527E0,5.92568E1,1.0886735E0,6.751079E0,5.676329E1,2.4935114E0],"tree_param":{"num_deleted":"0","num_feature":"3082","num_nodes":"19","size_leaf_vector":"0"}},{"base_weights":[3.867865E-2,7.7750194E-1,-2.426292E-2,2.3247081E-1,8.342598E-1,8.581522E-1,-7.7111796E-2,1.0065472E0,-1.237347E-1,7.966084E-1,-1.7885128E-1,3.5880893E-1,1.0733064E0,-2.2627562E-1,9.671623E-1,-2.863263E-1,7.9409134E-1],"categories":[],"categories_nodes":[],"categories_segments":[],"categories_sizes":[],"default_left":[0,0,0,0,0,0,0,0,0,1,1,0,0,1,0,0,0],"id":17,"left_children":[1,3,5,-1,-1,-1,7,-1,9,11,13,-1,-1,15,-1,-1,-1],"loss_changes":[3.9271913E0,1.1098862E-2,3.723125E0,0E0,0E0,0E0,3.9089181E0,0E0,3.8304853E0,1.347382E-1,3.9913669E0,0E0,0E0,4.361204E0,0E0,0E0,0E0],"parents":[2147483647,0,0,1,1,2,2,6,6,8,8,9,9,10,10,13,13],"right_children":[2,4,6,-1,-1,-1,8,-1,10,12,14,-1,-1,16,-1,-1,-1],"split_conditions":[8.000001E0,8.000001E0,8.000001E0,6.974125E-2,2.5027797E-1,2.5744566E-1,6.000001E0,3.0196416E-1,6.000001E0,-9.536743E-7,-9.536743E-7,1.0764269E-1,3.2199195E-1,-9.536743E-7,2.901487E-1,-8.589789E-2,2.3822741E-1],"split_indices":[2658,2258,1337,0,0,0,1819,0,1321,218,2392,0,0,564,0,0,0],"split_type":[0,0,0,0,0,0,0,0,0,0,0,0,0,0,0,0,0],"sum_hessian":[8.3045166E1,5.6281247E0,7.7417046E1,1.0114324E0,4.6166925E0,3.5135536E0,7.390349E1,2.1991603E0,7.170433E1,3.2913764E0,6.841296E1,2.1640723E0,1.1273041E0,6.646505E1,1.9479036E0,6.345026E1,3.0147886E0],"tree_param":{"num_deleted":"0","num_feature":"3082","num_nodes":"17","size_leaf_vector":"0"}},{"base_weights":[5.353884E-2,6.2272596E-1,-1.4692767E-2,-3.6834855E-2,7.8237563E-1,-6.951758E-1,5.397555E-2,8.5686904E-1,1.8056183E-1,-2.2080375E-1,-7.542499E-1,6.2759465E-1,-5.0881676E-2,-2.7556303E-1,8.608282E-1,-1.09893136E-1,9.0332633E-1,9.653539E-1,2.0105314E-1,1.1368809E0,-1.5479091E-1,-2.1438324E-1,8.4312E-1],"categories":[],"categories_nodes":[],"categories_segments":[],"categories_sizes":[],"default_left":[0,0,0,0,0,0,0,0,0,0,0,0,1,0,0,0,0,0,0,0,1,0,0],"id":18,"left_children":[1,3,5,-1,7,9,11,-1,-1,-1,-1,13,15,-1,17,19,-1,-1,-1,-1,21,-1,-1],"loss_changes":[3.1055658E0,9.2991996E-1,3.409942E0,0E0,1.56178E-1,2.0861149E-2,4.0308456E0,0E0,0E0,0E0,0E0,2.4174128E0,3.3164616E0,0E0,3.8991356E-1,3.2378478E0,0E0,0E0,0E0,0E0,3.3728194E0,0E0,0E0],"parents":[2147483647,0,0,1,1,2,2,4,4,5,5,6,6,11,11,12,12,14,14,15,15,20,20],"right_children":[2,4,6,-1,8,10,12,-1,-1,-1,-1,14,16,-1,18,20,-1,-1,-1,-1,22,-1,-1],"split_conditions":[4.5E0,1.5E0,3.8E1,-1.1050457E-2,2.15E1,5E0,3.5E0,2.5706074E-1,5.416855E-2,-6.624113E-2,-2.2627497E-1,8.5E0,-9.536743E-7,-8.2668915E-2,4E0,6.000001E0,2.709979E-1,2.8960618E-1,6.0315944E-2,3.4106427E-1,-9.536743E-7,-6.431498E-2,2.52936E-1],"split_indices":[2389,1505,2815,0,1065,966,3036,0,0,0,0,15,2390,0,3053,2277,0,0,0,0,2391,0,0],"split_type":[0,0,0,0,0,0,0,0,0,0,0,0,0,0,0,0,0,0,0,0,0,0,0],"sum_hessian":[7.872942E1,7.557576E0,7.117185E1,1.6227562E0,5.93482E0,5.6874266E0,6.548442E1,4.903986E0,1.0308341E0,1.1544876E0,4.532939E0,9.350035E0,5.6134388E1,1.881757E0,7.468278E0,5.3698334E1,2.436054E0,6.0471025E0,1.4211756E0,1.0211202E0,5.2677216E1,5.0449673E1,2.2275405E0],"tree_param":{"num_deleted":"0","num_feature":"3082","num_nodes":"23","size_leaf_vector":"0"}},{"base_weights":[5.8085807E-2,6.225871E-1,-1.3351338E-2,8.4766287E-1,3.0070294E-2,4.8190138E-1,-9.58906E-2,1.9444726E-1,-1.7211564E-1,-2.7839804E-1,6.6763735E-1,-8.394501E-1,2.7738411E-2,3.5452363E-3,8.533358E-1,-9.259531E-1,-1.3404168E-1,-4.7518224E-1,1.3291502E-1,9.381631E-1,2.994197E-1,6.392261E-1,-9.009803E-1,-6.8179363E-1,2.1640539E-1,9.869477E-1,1.4220636E-1],"categories":[],"categories_nodes":[],"categories_segments":[],"categories_sizes":[],"default_left":[0,0,0,0,0,1,0,0,0,0,0,0,0,0,1,0,0,0,0,0,0,0,0,0,0,0,0],"id":19,"left_children":[1,3,5,-1,7,9,11,-1,-1,-1,13,15,17,-1,19,-1,-1,21,23,-1,-1,-1,-1,-1,25,-1,-1],"loss_changes":[3.0253634E0,1.0981209E0,2.8009865E0,0E0,1.450095E-1,1.5687721E0,5.4099045E0,0E0,0E0,0E0,1.0038311E0,3.8758755E-1,2.772032E0,0E0,1.8695831E-2,0E0,0E0,4.8826942E0,3.0816438E0,0E0,0E0,0E0,0E0,0E0,2.1400204E0,0E0,0E0],"parents":[2147483647,0,0,1,1,2,2,4,4,5,5,6,6,10,10,11,11,12,12,14,14,17,17,18,18,24,24],"right_children":[2,4,6,-1,8,10,12,-1,-1,-1,14,16,18,-1,20,-1,-1,22,24,-1,-1,-1,-1,-1,26,-1,-1],"split_conditions":[3.4E1,8.25E1,1.5E0,2.5429887E-1,8.2E1,1.5E0,7.8E1,5.8334183E-2,-5.1634695E-2,-8.3519414E-2,8E0,8.8E1,2.000001E0,1.063571E-3,3.5E0,-2.7778593E-1,-4.0212505E-2,1.4000001E1,1.6E1,2.8144893E-1,8.982591E-2,1.9176783E-1,-2.702941E-1,-2.0453809E-1,1.5E0,2.960843E-1,4.266191E-2],"split_indices":[2396,15,1451,0,0,0,2874,0,0,0,15,1065,110,0,1063,0,0,2120,2357,0,0,0,0,0,2346,0,0],"split_type":[0,0,0,0,0,0,0,0,0,0,0,0,0,0,0,0,0,0,0,0,0,0,0,0,0,0,0],"sum_hessian":[7.3815865E1,7.4253173E0,6.639054E1,5.069125E0,2.3561924E0,8.792895E0,5.759765E1,1.3207217E0,1.0354706E0,1.6283693E0,7.164526E0,7.385844E0,5.0211803E1,1.7883053E0,5.3762207E0,6.3005686E0,1.0852754E0,8.076179E0,4.2135628E1,4.060673E0,1.3155476E0,2.0941305E0,5.9820476E0,3.2505224E0,3.8885105E1,2.3350208E0,3.6550083E1],"tree_param":{"num_deleted":"0","num_feature":"3082","num_nodes":"27","size_leaf_vector":"0"}},{"base_weights":[4.5752328E-2,6.158803E-1,-1.724935E-2,7.797014E-1,-4.318957E-2,8.134323E-1,-6.410822E-2,-1.0882864E-1,8.688624E-1,-1.539198E-1,7.989149E-1,-5.2108717E-1,4.4205144E-2,-6.88345E-1,7.522275E-1,-2.1761166E-1,2.7318788E-1],"categories":[],"categories_nodes":[],"categories_segments":[],"categories_sizes":[],"default_left":[0,0,0,0,0,0,1,1,0,1,0,1,0,0,0,0,0],"id":20,"left_children":[1,3,5,-1,-1,-1,7,9,-1,11,-1,13,15,-1,-1,-1,-1],"loss_changes":[2.5153933E0,7.858274E-1,2.5342836E0,0E0,0E0,0E0,2.6517227E0,2.5532434E0,0E0,4.1988373E0,0E0,4.819191E0,2.349972E0,0E0,0E0,0E0,0E0],"parents":[2147483647,0,0,1,1,2,2,6,6,7,7,9,9,11,11,12,12],"right_children":[2,4,6,-1,-1,-1,8,10,-1,12,-1,14,16,-1,-1,-1,-1],"split_conditions":[8.000001E0,8.55E1,1.2000001E1,2.3391043E-1,-1.2956872E-2,2.4402969E-1,-9.536743E-7,-9.536743E-7,2.6065874E-1,1.5E0,2.3967448E-1,-9.536743E-7,7.5E0,-2.0650351E-1,2.2566825E-1,-6.52835E-2,8.1956364E-2],"split_indices":[2687,0,2843,0,0,0,2392,2390,0,0,0,2391,15,0,0,0,0],"split_type":[0,0,0,0,0,0,0,0,0,0,0,0,0,0,0,0,0],"sum_hessian":[6.87338E1,5.966339E0,6.276746E1,4.631966E0,1.334373E0,2.478107E0,6.0289352E1,5.8374615E1,1.914739E0,5.6403282E1,1.9713335E0,1.9197031E1,3.720625E1,1.7374226E1,1.8228059E0,1.738176E1,1.982449E1],"tree_param":{"num_deleted":"0","num_feature":"3082","num_nodes":"17","size_leaf_vector":"0"}},{"base_weights":[5.012189E-2,5.9137505E-1,-1.57548E-2,2.4062501E-2,7.3647183E-1,9.128319E-1,-6.0465187E-2,8.049676E-1,2.1414854E-1,3.1003445E-1,-1.7035483E-1,-1.8470551E-1,4.4384563E-1,6.808303E-1,-2.3786587E-1,-3.707397E-1,5.8810763E-2,5.935457E-1,-1.6471206E-1,-2.9847383E-1,7.7947867E-1,6.953386E-1,-7.906337E-2,-3.618095E-1,7.281139E-1],"categories":[],"categories_nodes":[],"categories_segments":[],"categories_sizes":[],"default_left":[0,0,0,0,0,0,0,0,0,0,0,1,0,0,1,0,0,1,0,1,0,0,0,0,0],"id":21,"left_children":[1,3,5,-1,7,-1,9,-1,-1,11,13,15,17,-1,19,-1,-1,21,-1,23,-1,-1,-1,-1,-1],"loss_changes":[2.3312893E0,5.660558E-1,2.5059538E0,0E0,2.8460503E-2,0E0,2.3839333E0,0E0,0E0,9.725238E-1,2.7365727E0,1.835286E-1,1.0891314E0,0E0,2.8379097E0,0E0,0E0,6.678138E-1,0E0,2.9032326E0,0E0,0E0,0E0,0E0,0E0],"parents":[2147483647,0,0,1,1,2,2,4,4,6,6,9,9,10,10,11,11,12,12,14,14,17,17,19,19],"right_children":[2,4,6,-1,8,-1,10,-1,-1,12,14,16,18,-1,20,-1,-1,22,-1,24,-1,-1,-1,-1,-1],"split_conditions":[4.5E0,1.5E0,6.000001E0,7.2187507E-3,1.75E1,2.7384958E-1,3.5E0,2.4149029E-1,6.424456E-2,4.5E0,1.5E0,1.5E0,1.75E1,2.042491E-1,-9.536743E-7,-1.1122192E-1,1.764323E-2,9.5E0,-4.9413618E-2,-9.536743E-7,2.3384361E-1,2.086016E-1,-2.3719013E-2,-1.0854285E-1,2.1843417E-1],"split_indices":[2389,1505,1819,0,1065,0,1451,0,0,15,1046,1063,0,0,2392,0,0,1065,0,2390,0,0,0,0,0],"split_type":[0,0,0,0,0,0,0,0,0,0,0,0,0,0,0,0,0,0,0,0,0,0,0,0,0],"sum_hessian":[6.412156E1,6.091971E0,5.8029587E1,1.4782019E0,4.613769E0,1.7737685E0,5.6255817E1,3.6004848E0,1.0132846E0,1.2451958E1,4.380386E1,2.5699053E0,9.882052E0,2.5513601E0,4.1252502E1,1.1607257E0,1.4091794E0,7.9508724E0,1.9311795E0,3.959996E1,1.6525407E0,6.8764024E0,1.0744702E0,3.790873E1,1.6912299E0],"tree_param":{"num_deleted":"0","num_feature":"3082","num_nodes":"25","size_leaf_vector":"0"}},{"base_weights":[5.92452E-2,-6.35034E-1,1.0556354E-1,6.255839E-1,3.999222E-2,7.845764E-1,1.8683109E-1,-6.3648E-1,8.712872E-2,5.2690953E-1,1.5913483E-2,-3.243921E-1,7.691163E-1,-6.806504E-1,6.35858E-2,1.0845683E-1,-6.7196345E-1],"categories":[],"categories_nodes":[],"categories_segments":[],"categories_sizes":[],"default_left":[0,0,0,0,0,0,0,0,0,0,0,0,0,0,1,0,0],"id":22,"left_children":[1,-1,3,5,7,-1,-1,-1,9,11,13,-1,-1,-1,15,-1,-1],"loss_changes":[2.0328026E0,0E0,1.9582484E0,3.029728E-1,1.7364668E0,0E0,0E0,0E0,1.5627059E0,1.6845825E0,1.5111539E0,0E0,0E0,0E0,1.4685569E0,0E0,0E0],"parents":[2147483647,0,0,2,2,3,3,4,4,8,8,9,9,10,10,14,14],"right_children":[2,-1,4,6,8,-1,-1,-1,10,12,14,-1,-1,-1,16,-1,-1],"split_conditions":[4E1,-1.9051021E-1,3.4E1,7.4E1,2.6E1,2.3537293E-1,5.604933E-2,-1.90944E-1,3.5E0,8.5E0,3.5E0,-9.7317636E-2,2.307349E-1,-2.0419513E-1,1.45E1,3.253705E-2,-2.0158905E-1],"split_indices":[2168,0,2396,15,2258,0,0,0,3036,15,1171,0,0,0,15,0,0],"split_type":[0,0,0,0,0,0,0,0,0,0,0,0,0,0,0,0,0],"sum_hessian":[6.0128643E1,2.9656365E0,5.7163006E1,5.4444776E0,5.171853E1,3.4177704E0,2.0267072E0,2.5545394E0,4.916399E1,5.9599895E0,4.3204E1,1.2449509E0,4.715039E0,1.9169412E0,4.128706E1,3.971675E1,1.5703081E0],"tree_param":{"num_deleted":"0","num_feature":"3082","num_nodes":"17","size_leaf_vector":"0"}},{"base_weights":[3.8293906E-2,6.60175E-1,-1.4847119E-2,8.198914E-1,-5.497225E-2,-1.0237826E-1,7.2051424E-1,-5.7650214E-1,-8.859496E-3,3.380834E-1,-7.92394E-1,1.3688242E-1,-4.4599393E-1,-6.1181456E-1,2.0286837E-1,7.1226037E-1,-6.6951317E-1],"categories":[],"categories_nodes":[],"categories_segments":[],"categories_sizes":[],"default_left":[0,0,0,0,1,0,0,0,1,0,0,0,0,0,0,0,0],"id":23,"left_children":[1,-1,3,-1,5,7,-1,9,11,-1,-1,13,15,-1,-1,-1,-1],"loss_changes":[1.9474566E0,0E0,1.8870655E0,0E0,2.037248E0,2.2654433E0,0E0,1.9306219E0,2.8506923E0,0E0,0E0,1.7842724E0,3.3721633E0,0E0,0E0,0E0,0E0],"parents":[2147483647,0,0,2,2,4,4,5,5,7,7,8,8,11,11,12,12],"right_children":[2,-1,4,-1,6,8,-1,10,12,-1,-1,14,16,-1,-1,-1,-1],"split_conditions":[8.000001E0,1.9805251E-1,6.000001E0,2.4596743E-1,-9.536743E-7,4.000001E0,2.1615428E-1,3.5E0,3.5E0,1.0142502E-1,-2.3771821E-1,8.000001E0,1.0000001E1,-1.8354437E-1,6.0860515E-2,2.1367812E-1,-2.0085396E-1],"split_indices":[2658,0,1819,0,564,110,0,1638,1065,0,0,811,1632,0,0,0,0],"split_type":[0,0,0,0,0,0,0,0,0,0,0,0,0,0,0,0,0],"sum_hessian":[5.76326E1,3.6378384E0,5.3994762E1,1.5851392E0,5.2409622E1,5.0208336E1,2.2012875E0,7.420933E0,4.2787403E1,1.3091171E0,6.1118155E0,3.2603996E1,1.0183405E1,1.9708E0,3.0633198E1,1.2935882E0,8.889817E0],"tree_param":{"num_deleted":"0","num_feature":"3082","num_nodes":"17","size_leaf_vector":"0"}},{"base_weights":[3.400653E-2,5.6641245E-1,-2.3719704E-2,-1.1687775E-2,7.022421E-1,5.241957E-1,-9.295122E-2,7.782431E-1,7.100041E-2,5.9327745E-1,-1.4526308E-1,3.2858709E-1,-2.4708024E-1,5.335037E-1,-2.0532207E-1,1.2897408E-1,6.802048E-1,-2.5858122E-1,6.9069207E-1,4.8708647E-1,-3.286684E-1],"categories":[],"categories_nodes":[],"categories_segments":[],"categories_sizes":[],"default_left":[0,0,0,0,0,1,0,0,0,0,0,0,0,0,1,0,0,0,0,0,0],"id":24,"left_children":[1,3,5,-1,-1,7,9,-1,11,-1,13,-1,-1,15,17,-1,-1,19,-1,-1,-1],"loss_changes":[1.7148235E0,4.3657923E-1,1.9796493E0,0E0,0E0,6.195363E-1,1.7390125E0,0E0,3.4384108E-1,0E0,1.8863126E0,0E0,0E0,1.390214E-1,2.123884E0,0E0,0E0,2.2089727E0,0E0,0E0,0E0],"parents":[2147483647,0,0,1,1,2,2,5,5,6,6,8,8,10,10,13,13,14,14,17,17],"right_children":[2,4,6,-1,-1,8,10,-1,12,-1,14,-1,-1,16,18,-1,-1,20,-1,-1,-1],"split_conditions":[8.000001E0,2.000001E0,1.2000001E1,-3.5063326E-3,2.1067263E-1,1.5E0,3.5E0,2.3347294E-1,1.65E1,1.7798324E-1,6.000001E0,9.857613E-2,-7.4124075E-2,9.5E0,-9.536743E-7,3.8692225E-2,2.0406145E-1,6.000001E0,2.0720764E-1,1.4612594E-1,-9.860052E-2],"split_indices":[2687,811,2389,0,0,1065,1086,0,15,0,2658,0,0,0,2391,0,0,1321,0,0,0],"split_type":[0,0,0,0,0,0,0,0,0,0,0,0,0,0,0,0,0,0,0,0,0],"sum_hessian":[5.435889E1,4.455354E0,4.9903538E1,1.0215443E0,3.4338098E0,4.8609715E0,4.5042564E1,2.6552713E0,2.2057002E0,2.457949E0,4.2584618E1,1.2004921E0,1.0052081E0,2.820887E0,3.976373E1,1.2508414E0,1.5700457E0,3.8204273E1,1.5594555E0,2.7712119E0,3.5433064E1],"tree_param":{"num_deleted":"0","num_feature":"3082","num_nodes":"21","size_leaf_vector":"0"}},{"base_weights":[4.992268E-2,6.82894E-1,9.700929E-3,7.6646984E-1,-2.8526604E-2,-6.484922E-2,7.000503E-1,4.4674164E-1,-1.24371395E-1,7.2255945E-1,9.469779E-4,-1.6779616E-1,6.649403E-1,-4.7063482E-1,-1.3625459E-2],"categories":[],"categories_nodes":[],"categories_segments":[],"categories_sizes":[],"default_left":[0,0,0,0,1,0,0,1,1,0,0,1,0,0,0],"id":25,"left_children":[1,-1,3,-1,5,7,-1,9,11,-1,-1,13,-1,-1,-1],"loss_changes":[1.3116068E0,0E0,1.4596262E0,0E0,1.3228936E0,1.4835969E0,0E0,6.270603E-1,1.5782586E0,0E0,0E0,1.9245399E0,0E0,0E0,0E0],"parents":[2147483647,0,0,2,2,4,4,5,5,7,7,8,8,11,11],"right_children":[2,-1,4,-1,6,8,-1,10,12,-1,-1,14,-1,-1,-1],"split_conditions":[1.2000001E1,2.0486821E-1,6.000001E0,2.2994097E-1,-9.536743E-7,4.5E0,2.100151E-1,1.5E0,-9.536743E-7,2.1676785E-1,2.8409337E-4,1.5E0,1.994821E-1,-1.4119045E-1,-4.0876376E-3],"split_indices":[1337,0,1819,0,2392,2389,0,1065,2390,0,0,0,0,0,0],"split_type":[0,0,0,0,0,0,0,0,0,0,0,0,0,0,0],"sum_hessian":[5.077817E1,2.0792174E0,4.869895E1,1.4256649E0,4.727329E1,4.5896164E1,1.3771247E0,4.105352E0,4.1790813E1,2.1526499E0,1.9527019E0,4.0357895E1,1.4329156E0,1.2922146E1,2.7435751E1],"tree_param":{"num_deleted":"0","num_feature":"3082","num_nodes":"15","size_leaf_vector":"0"}},{"base_weights":[5.640015E-2,-5.607742E-1,9.6295334E-2,5.792311E-1,3.4946676E-2,7.3006725E-1,1.6847101E-1,7.083002E-1,-7.3682438E-3,4.43826E-1,-7.196476E-2,6.463024E-1,-1.4081454E-1,-1.2158605E-1,6.717856E-1,-1.7336585E-1,6.254897E-1],"categories":[],"categories_nodes":[],"categories_segments":[],"categories_sizes":[],"default_left":[0,0,0,0,0,0,0,0,0,0,1,0,0,1,0,0,0],"id":26,"left_children":[1,-1,3,5,7,-1,-1,-1,9,11,13,-1,-1,15,-1,-1,-1],"loss_changes":[1.2747865E0,0E0,1.3847994E0,2.0420957E-1,1.2344742E0,0E0,0E0,0E0,1.2438524E0,7.239747E-1,1.4558419E0,0E0,0E0,1.4914567E0,0E0,0E0,0E0],"parents":[2147483647,0,0,2,2,3,3,4,4,8,8,9,9,10,10,13,13],"right_children":[2,-1,4,6,8,-1,-1,-1,10,12,14,-1,-1,16,-1,-1,-1],"split_conditions":[4E1,-1.6823226E-1,3.4E1,7.4E1,1.5E0,2.1902019E-1,5.0541304E-2,2.1249007E-1,3.5E0,2.5E0,-9.536743E-7,1.9389074E-1,-4.2244364E-2,-9.536743E-7,2.0153569E-1,-5.2009758E-2,1.8764693E-1],"split_indices":[2168,0,2396,15,1798,0,0,0,3053,3036,2391,0,0,564,0,0,0],"split_type":[0,0,0,0,0,0,0,0,0,0,0,0,0,0,0,0,0],"sum_hessian":[4.8580555E1,2.156927E0,4.6423626E1,4.2811165E0,4.214251E1,2.5627031E0,1.7184134E0,1.5611583E0,4.0581352E1,4.3470817E0,3.6234272E1,3.1505082E0,1.1965737E0,3.475221E1,1.4820627E0,3.3217823E1,1.5343856E0],"tree_param":{"num_deleted":"0","num_feature":"3082","num_nodes":"17","size_leaf_vector":"0"}},{"base_weights":[6.0966972E-2,-4.015808E-1,1.1586498E-1,1.5759585E-2,-5.3668493E-1,7.6715094E-1,7.9443485E-2,6.762769E-1,3.725196E-2,7.077764E-1,-2.9484257E-3,5.897621E-1,-4.963559E-2,1.6093971E-1,-2.850554E-1],"categories":[],"categories_nodes":[],"categories_segments":[],"categories_sizes":[],"default_left":[0,0,0,0,0,0,0,0,0,0,0,0,1,0,0],"id":27,"left_children":[1,3,5,-1,-1,-1,7,-1,9,-1,11,-1,13,-1,-1],"loss_changes":[1.2479538E0,3.0411446E-1,9.607037E-1,0E0,0E0,0E0,1.030011E0,0E0,1.0855788E0,0E0,1.1062136E0,0E0,1.8800386E0,0E0,0E0],"parents":[2147483647,0,0,1,1,2,2,6,6,8,8,10,10,12,12],"right_children":[2,4,6,-1,-1,-1,8,-1,10,-1,12,-1,14,-1,-1],"split_conditions":[1.6E1,3.5E0,6.5E0,4.727876E-3,-1.6100548E-1,2.3014529E-1,1.2000001E1,2.0288308E-1,6.000001E0,2.1233293E-1,1.2000001E1,1.7692864E-1,1.5E0,4.8281915E-2,-8.5516624E-2],"split_indices":[2357,1451,1833,0,0,0,2843,0,1819,0,191,0,1065,0,0],"split_type":[0,0,0,0,0,0,0,0,0,0,0,0,0,0,0],"sum_hessian":[4.6313313E1,4.2435856E0,4.206973E1,1.2538282E0,2.9897575E0,1.1654849E0,4.0904243E1,1.7084261E0,3.9195816E1,1.277725E0,3.791809E1,1.9193268E0,3.5998764E1,1.916905E1,1.6829714E1],"tree_param":{"num_deleted":"0","num_feature":"3082","num_nodes":"15","size_leaf_vector":"0"}},{"base_weights":[5.8531404E-2,-4.4514623E-1,1.0497973E-1,-5.743493E-1,-9.9967994E-2,-6.017864E-1,1.4302763E-1,-2.849047E-2,3.024528E-1,1.330518E-1,-4.9642307E-1,6.422699E-1,1.2141371E-1,-5.3378E-1,2.2866015E-1,1.077903E0,1.8972851E-2,-4.774801E-1,3.2698095E-1,-5.472696E-1,3.3061412E-1,5.0569844E-1,1.4524602E0,-5.09423E-1,5.6855404E-1,-5.947023E-1,-7.462003E-2,-1.6723144E-1,4.7958153E-1],"categories":[],"categories_nodes":[],"categories_segments":[],"categories_sizes":[],"default_left":[0,0,0,0,0,0,1,1,1,0,0,1,1,0,0,0,1,0,1,0,0,0,0,0,0,0,0,0,0],"id":28,"left_children":[1,3,5,-1,-1,-1,7,9,11,13,-1,15,17,-1,19,21,23,25,27,-1,-1,-1,-1,-1,-1,-1,-1,-1,-1],"loss_changes":[1.120012E0,1.2384266E-1,1.237335E0,0E0,0E0,0E0,1.1415794E0,1.6438977E0,1.2483759E0,1.1615981E0,0E0,1.951014E0,2.0396419E0,0E0,1.3644712E0,1.775999E-1,1.4526311E0,1.594379E-1,9.839387E-1,0E0,0E0,0E0,0E0,0E0,0E0,0E0,0E0,0E0,0E0],"parents":[2147483647,0,0,1,1,2,2,6,6,7,7,8,8,9,9,11,11,12,12,14,14,15,15,16,16,17,17,18,18],"right_children":[2,4,6,-1,-1,-1,8,10,12,14,-1,16,18,-1,20,22,24,26,28,-1,-1,-1,-1,-1,-1,-1,-1,-1,-1],"split_conditions":[3.8E1,4.6E1,6.000001E0,-1.723048E-1,-2.99904E-2,-1.8053591E-1,2.5E0,1.5E0,2.5E0,8.000001E0,-1.4892693E-1,1.5E0,1.5E0,-1.60134E-1,2.000001E0,6.5E0,-9.536743E-7,8.5E0,2.5E0,-1.6418087E-1,9.918424E-2,1.5170954E-1,4.3573806E-1,-1.528269E-1,1.7056622E-1,-1.784107E-1,-2.238601E-2,-5.0169434E-2,1.4387447E-1],"split_indices":[2815,2874,1907,0,0,0,0,1065,15,811,0,1063,1063,0,1815,1065,218,15,1065,0,0,0,0,0,0,0,0,0,0],"split_type":[0,0,0,0,0,0,0,0,0,0,0,0,0,0,0,0,0,0,0,0,0,0,0,0,0,0,0,0,0],"sum_hessian":[4.4876537E1,3.0642838E0,4.1812252E1,1.7465973E0,1.3176864E0,1.3790424E0,4.043321E1,1.9873516E1,2.0559694E1,1.5305371E1,4.5681443E0,6.260611E0,1.4299084E1,1.3445643E0,1.3960807E1,3.2557523E0,3.0048585E0,3.3158972E0,1.0983187E1,1.1140927E0,1.2846714E1,2.2177925E0,1.0379598E0,1.5692096E0,1.435649E0,2.1996524E0,1.1162446E0,2.5686095E0,8.414577E0],"tree_param":{"num_deleted":"0","num_feature":"3082","num_nodes":"29","size_leaf_vector":"0"}},{"base_weights":[3.489891E-2,4.917933E-1,-1.2173632E-2,6.6280264E-1,1.00871414E-1,4.4789636E-1,-7.033909E-2,-6.0403142E-2,6.0724974E-1,4.6995497E-1,-1.1884652E-1,1.2573314E-1,5.8265847E-1,6.099918E-1,-1.5964538E-1,-4.7003865E-2,-4.8976892E-1,-2.5038898E-1,2.2350092E-1,-6.9394845E-1,5.1205313E-1],"categories":[],"categories_nodes":[],"categories_segments":[],"categories_sizes":[],"default_left":[0,0,0,0,0,0,0,0,0,0,0,0,0,0,1,1,1,0,0,0,0],"id":29,"left_children":[1,3,5,-1,-1,7,9,-1,-1,11,13,-1,-1,-1,15,17,19,-1,-1,-1,-1],"loss_changes":[9.529945E-1,2.0970178E-1,1.1258683E0,0E0,0E0,4.194585E-1,1.0300014E0,0E0,0E0,5.3367138E-2,1.135325E0,0E0,0E0,0E0,1.2356281E0,1.5052586E0,2.095021E0,0E0,0E0,0E0,0E0],"parents":[2147483647,0,0,1,1,2,2,5,5,6,6,9,9,10,10,14,14,15,15,16,16],"right_children":[2,4,6,-1,-1,8,10,-1,-1,12,14,-1,-1,-1,16,18,20,-1,-1,-1,-1],"split_conditions":[8.000001E0,3.9E1,1.2000001E1,1.988408E-1,3.0261425E-2,1.5E0,6.000001E0,-1.8120943E-2,1.8217492E-1,9.5E0,6.000001E0,3.7719943E-2,1.7479755E-1,1.8299754E-1,3.5E0,2.5E0,-9.536743E-7,-7.5116694E-2,6.705028E-2,-2.0818454E-1,1.5361595E-1],"split_indices":[2687,1063,2389,0,0,1505,2658,0,0,0,1538,0,0,0,1065,0,564,0,0,0,0],"split_type":[0,0,0,0,0,0,0,0,0,0,0,0,0,0,0,0,0,0,0,0,0],"sum_hessian":[4.303216E1,3.136937E0,3.9895226E1,1.6984578E0,1.4384791E0,3.7257066E0,3.6169518E1,1.0374467E0,2.6882598E0,2.2639935E0,3.3905525E1,1.0802569E0,1.1837366E0,1.057789E0,3.2847736E1,2.5342873E1,7.5048633E0,1.4508611E1,1.0834262E1,6.489553E0,1.0153102E0],"tree_param":{"num_deleted":"0","num_feature":"3082","num_nodes":"21","size_leaf_vector":"0"}},{"base_weights":[4.2810485E-2,-4.9552694E-1,8.093982E-2,5.042806E-1,2.8181817E-2,6.536901E-1,1.4200912E-1,-2.0605049E-1,1.624794E-1,4.5513455E-2,-6.438498E-1,-7.05096E-2,3.997657E-1,-5.7232773E-1,3.6882436E-1,-2.1602206E-1,-7.2237885E-1,2.0816596E-1,-4.1515562E-1,3.1788476E-2,8.7278986E-1,-1.19743705E-1,4.8226848E-1,-3.5036713E-1,4.2814475E-1,4.9245093E-2,-5.2170086E-1,4.7450912E-1,-4.061436E-1,1.3026568E0,-1.9282574E-2],"categories":[],"categories_nodes":[],"categories_segments":[],"categories_sizes":[],"default_left":[0,0,0,0,0,0,0,0,1,0,0,0,0,0,0,0,0,0,0,0,1,0,0,0,0,0,0,0,0,0,0],"id":30,"left_children":[1,-1,3,5,7,-1,-1,9,11,13,15,17,19,-1,21,-1,-1,23,25,27,29,-1,-1,-1,-1,-1,-1,-1,-1,-1,-1],"loss_changes":[8.9905584E-1,0E0,8.777813E-1,1.435107E-1,1.1838948E0,0E0,0E0,1.5456333E0,1.3441539E0,2.144258E0,1.4967203E-2,1.3215971E0,2.0510473E0,0E0,4.4357848E-1,0E0,0E0,1.105511E0,3.2670748E-1,1.6962855E0,2.0144737E0,0E0,0E0,0E0,0E0,0E0,0E0,0E0,0E0,0E0,0E0],"parents":[2147483647,0,0,2,2,3,3,4,4,7,7,8,8,9,9,10,10,11,11,12,12,14,14,17,17,18,18,19,19,20,20],"right_children":[2,-1,4,6,8,-1,-1,10,12,14,16,18,20,-1,22,-1,-1,24,26,28,30,-1,-1,-1,-1,-1,-1,-1,-1,-1,-1],"split_conditions":[1.0000001E1,-1.4865808E-1,3.4E1,7.4E1,7.5E0,1.9610704E-1,4.260274E-2,5.5E0,1.5E0,3.5E0,1.5E0,1.5E0,1.04E2,-1.7169833E-1,4.5E0,-6.480662E-2,-2.1671367E-1,1.4000001E1,2.000001E0,1.05E1,1.5E0,-3.5923112E-2,1.4468054E-1,-1.05110146E-1,1.2844343E-1,1.4773528E-2,-1.5651026E-1,1.4235274E-1,-1.21843085E-1,3.9079705E-1,-5.7847723E-3],"split_indices":[1866,0,2396,15,15,0,0,1063,0,0,0,1505,1063,0,1451,0,0,1065,0,15,1065,0,0,0,0,0,0,0,0,0,0],"split_type":[0,0,0,0,0,0,0,0,0,0,0,0,0,0,0,0,0,0,0,0,0,0,0,0,0,0,0,0,0,0,0],"sum_hessian":[4.084591E1,1.908228E0,3.8937683E1,3.366427E0,3.5571255E1,1.8139076E0,1.5525192E0,1.2767976E1,2.280328E1,8.677713E0,4.0902624E0,1.1860462E1,1.0942818E1,2.7164395E0,5.961274E0,1.2160509E0,2.8742115E0,6.776825E0,5.083637E0,6.755078E0,4.18774E0,1.1128876E0,4.8483863E0,1.7473974E0,5.0294275E0,1.0490264E0,4.034611E0,3.3176394E0,3.4374382E0,2.5153823E0,1.6723574E0],"tree_param":{"num_deleted":"0","num_feature":"3082","num_nodes":"31","size_leaf_vector":"0"}},{"base_weights":[3.321759E-2,4.5334625E-1,-1.069624E-2,6.140828E-1,9.26564E-2,-5.034862E-2,5.8392805E-1,-8.671011E-2,5.8436835E-1,-1.2518543E-1,5.659451E-1,-4.3219015E-1,2.5265701E-2,-5.9692734E-1,5.597293E-1,-1.1949607E-1,4.349121E-1],"categories":[],"categories_nodes":[],"categories_segments":[],"categories_sizes":[],"default_left":[0,0,1,0,0,1,0,1,0,1,0,1,0,0,0,0,0],"id":31,"left_children":[1,3,5,-1,-1,7,-1,9,-1,11,-1,13,15,-1,-1,-1,-1],"loss_changes":[7.2740245E-1,1.5930891E-1,8.8846654E-1,0E0,0E0,8.602343E-1,0E0,9.2582417E-1,0E0,1.5338304E0,0E0,2.1150794E0,1.4201744E0,0E0,0E0,0E0,0E0],"parents":[2147483647,0,0,1,1,2,2,5,5,7,7,9,9,11,11,12,12],"right_children":[2,4,6,-1,-1,8,-1,10,-1,12,-1,14,16,-1,-1,-1,-1],"split_conditions":[8.000001E0,3.9E1,1.5E0,1.8422484E-1,2.779692E-2,-9.536743E-7,1.7517842E-1,-9.536743E-7,1.753105E-1,1.5E0,1.6978353E-1,-9.536743E-7,1.3E2,-1.790782E-1,1.6791879E-1,-3.5848822E-2,1.3047363E-1],"split_indices":[2687,1063,2396,0,0,2392,0,2390,0,0,0,2391,15,0,0,0,0],"split_type":[0,0,0,0,0,0,0,0,0,0,0,0,0,0,0,0,0],"sum_hessian":[3.8163933E1,2.7292585E0,3.5434673E1,1.4019675E0,1.3272911E0,3.407755E1,1.3571264E0,3.3047707E1,1.0298399E0,3.1971136E1,1.0765716E0,9.898997E0,2.2072138E1,8.830625E0,1.0683732E0,1.6832224E1,5.239915E0],"tree_param":{"num_deleted":"0","num_feature":"3082","num_nodes":"17","size_leaf_vector":"0"}},{"base_weights":[4.5841623E-2,4.3160027E-1,-3.410605E-3,6.1439353E-1,1.07819214E-1,5.616168E-1,-3.9629314E-2,-7.841545E-2,5.520697E-1,3.978987E-1,-1.319936E-1,5.596253E-1,7.5188376E-2,-6.5755403E-1,-6.565192E-2,5.6762016E-1,-1.4438975E-1],"categories":[],"categories_nodes":[],"categories_segments":[],"categories_sizes":[],"default_left":[0,1,0,0,0,0,1,0,0,0,0,0,0,0,0,0,0],"id":32,"left_children":[1,3,5,-1,-1,-1,7,9,-1,11,13,-1,-1,-1,15,-1,-1],"loss_changes":[7.1019655E-1,1.8418229E-1,7.195065E-1,0E0,0E0,0E0,7.995475E-1,8.640877E-1,0E0,1.3874096E-1,9.7969836E-1,0E0,0E0,0E0,1.4361955E0,0E0,0E0],"parents":[2147483647,0,0,1,1,2,2,6,6,7,7,9,9,10,10,14,14],"right_children":[2,4,6,-1,-1,-1,8,10,-1,12,14,-1,-1,-1,16,-1,-1],"split_conditions":[4.5E0,1.5E0,4.000001E0,1.8431807E-1,3.2345764E-2,1.6848505E-1,-9.536743E-7,8.000001E0,1.6562092E-1,3.9E1,1.6E1,1.678876E-1,2.2556514E-2,-1.9726622E-1,1.5E0,1.7028606E-1,-4.3316927E-2],"split_indices":[2389,1065,2013,0,0,0,564,2687,0,1063,2357,0,0,0,2346,0,0],"split_type":[0,0,0,0,0,0,0,0,0,0,0,0,0,0,0,0,0],"sum_hessian":[3.630233E1,3.2312353E0,3.3071095E1,1.4915885E0,1.7396469E0,1.1183343E0,3.1952759E1,3.08012E1,1.1515586E0,2.4645593E0,2.8336641E1,1.1527274E0,1.311832E0,2.1771982E0,2.6159443E1,2.206227E0,2.3953217E1],"tree_param":{"num_deleted":"0","num_feature":"3082","num_nodes":"17","size_leaf_vector":"0"}},{"base_weights":[5.218927E-2,-4.5393392E-1,8.786428E-2,-3.752413E-1,1.3056627E-1,-5.830457E-1,2.6142783E-2,-4.0859136E-1,1.6408974E-1,9.341905E-3,3.0660713E-1,-4.8798138E-1,1.1512461E-1,4.482757E-1,-5.4305565E-2,2.142846E-1,-2.2927655E-1,1.423796E-1,7.765559E-1,-4.048645E-1,3.0651835E-1],"categories":[],"categories_nodes":[],"categories_segments":[],"categories_sizes":[],"default_left":[0,0,0,1,0,0,0,0,1,0,1,0,1,0,0,0,0,0,0,0,0],"id":33,"left_children":[1,-1,3,5,7,-1,-1,-1,9,11,13,-1,15,17,19,-1,-1,-1,-1,-1,-1],"loss_changes":[6.9077706E-1,0E0,7.3150325E-1,2.7980232E-1,6.5159106E-1,0E0,0E0,0E0,6.84375E-1,8.9638627E-1,8.5215175E-1,0E0,5.2652085E-1,1.0678158E0,8.141887E-1,0E0,0E0,0E0,0E0,0E0,0E0],"parents":[2147483647,0,0,2,2,3,3,4,4,8,8,9,9,10,10,12,12,13,13,14,14],"right_children":[2,-1,4,6,8,-1,-1,-1,10,12,14,-1,16,18,20,-1,-1,-1,-1,-1,-1],"split_conditions":[4E1,-1.3618018E-1,1.0000001E1,2.5E0,2.5E0,-1.7491372E-1,7.842835E-3,-1.22577414E-1,2.5E0,2.000001E0,3.5E0,-1.4639442E-1,1.5E0,8.5E0,1.05E1,6.428538E-2,-6.878297E-2,4.271388E-2,2.3296678E-1,-1.2145935E-1,9.1955505E-2],"split_indices":[2168,0,1550,1065,2258,0,0,0,0,110,1063,0,1065,15,0,0,0,0,0,0,0],"split_type":[0,0,0,0,0,0,0,0,0,0,0,0,0,0,0,0,0,0,0,0,0],"sum_hessian":[3.5048637E1,1.535815E0,3.3512825E1,2.1718237E0,3.1341E1,1.1327755E0,1.0390482E0,1.1796988E0,3.01613E1,1.4971038E1,1.5190263E1,1.9921511E0,1.2978888E1,1.0734574E1,4.4556894E0,1.0370747E1,2.6081402E0,6.2988915E0,4.4356823E0,2.1980832E0,2.257606E0],"tree_param":{"num_deleted":"0","num_feature":"3082","num_nodes":"21","size_leaf_vector":"0"}},{"base_weights":[2.7530046E-2,3.985421E-1,-1.7911253E-2,5.576695E-1,1.18696325E-1,5.3602797E-1,-5.4562815E-2,-3.7538248E-1,2.040183E-2,2.67114E-2,-5.5073255E-1,-5.334415E-1,6.372369E-2,4.9644998E-1,1.8448671E-2,2.8196704E-1,-7.376872E-2],"categories":[],"categories_nodes":[],"categories_segments":[],"categories_sizes":[],"default_left":[0,1,0,0,0,0,0,0,0,0,0,0,0,0,0,0,0],"id":34,"left_children":[1,3,5,-1,-1,-1,7,9,11,-1,-1,-1,13,-1,15,-1,-1],"loss_changes":[5.999287E-1,1.06570125E-1,6.846496E-1,0E0,0E0,0E0,7.576794E-1,4.3481869E-1,6.6327965E-1,0E0,0E0,0E0,4.8490375E-1,0E0,6.0081565E-1,0E0,0E0],"parents":[2147483647,0,0,1,1,2,2,6,6,7,7,8,8,12,12,14,14],"right_children":[2,4,6,-1,-1,-1,8,10,12,-1,-1,-1,14,-1,16,-1,-1],"split_conditions":[4.5E0,1.5E0,8.000001E0,1.6730087E-1,3.56089E-2,1.608084E-1,2.5E0,1.5E0,2.5E0,8.013421E-3,-1.6521977E-1,-1.6003245E-1,3.5E0,1.48935E-1,1.5E0,8.4590115E-2,-2.2130616E-2],"split_indices":[2389,1065,1885,0,0,0,0,1065,1118,0,0,0,1086,0,1505,0,0],"split_type":[0,0,0,0,0,0,0,0,0,0,0,0,0,0,0,0,0],"sum_hessian":[3.4161087E1,2.8796103E0,3.1281477E1,1.2028596E0,1.6767507E0,1.0957478E0,3.018573E1,4.958369E0,2.5227362E1,1.7630957E0,3.1952732E0,1.0093968E0,2.4217964E1,1.3499833E0,2.2867981E1,5.394666E0,1.7473314E1],"tree_param":{"num_deleted":"0","num_feature":"3082","num_nodes":"17","size_leaf_vector":"0"}},{"base_weights":[2.7561054E-2,3.8111305E-1,-1.6567485E-2,5.8189815E-1,3.520395E-2,-5.270061E-1,2.578845E-2,-4.6821678E-1,6.1887875E-2,5.5277914E-1,1.9611293E-2,-7.2859293E-1,1.079603E-1,-4.3381655E-1,1.5654905E-1],"categories":[],"categories_nodes":[],"categories_segments":[],"categories_sizes":[],"default_left":[0,0,0,0,0,0,0,0,0,0,0,0,0,0,0],"id":35,"left_children":[1,3,5,-1,-1,-1,7,-1,9,-1,11,-1,13,-1,-1],"loss_changes":[5.383054E-1,2.4519926E-1,6.8971306E-1,0E0,0E0,0E0,5.60945E-1,0E0,5.8440065E-1,0E0,1.8928192E0,0E0,7.3699534E-1,0E0,0E0],"parents":[2147483647,0,0,1,1,2,2,6,6,8,8,10,10,12,12],"right_children":[2,4,6,-1,-1,-1,8,-1,10,-1,12,-1,14,-1,-1],"split_conditions":[3.4E1,8.25E1,3E1,1.7456946E-1,1.0561185E-2,-1.5810183E-1,1.5E0,-1.4046504E-1,1.5E0,1.6583374E-1,8.000001E0,-2.1857789E-1,1.2000001E1,-1.3014497E-1,4.6964716E-2],"split_indices":[2396,15,1030,0,0,0,15,0,821,0,1815,0,2775,0,0],"split_type":[0,0,0,0,0,0,0,0,0,0,0,0,0,0,0],"sum_hessian":[3.3098217E1,2.8253617E0,3.0272856E1,1.356022E0,1.4693398E0,1.4428234E0,2.8830032E1,1.1481322E0,2.76819E1,1.2374969E0,2.6444403E1,2.0274773E0,2.4416925E1,1.3570577E0,2.3059868E1],"tree_param":{"num_deleted":"0","num_feature":"3082","num_nodes":"15","size_leaf_vector":"0"}},{"base_weights":[1.08933505E-2,-4.1831404E-1,4.532392E-2,9.278165E-3,5.38491E-1,4.129626E-1,-3.2626655E-2,-4.0524608E-1,3.0594282E-2,1.6903129E-1,-6.382741E-1,-1.4356832E-1,1.9585133E-1,-2.2836234E-3,-5.117358E-1,6.4784706E-1,7.212392E-2],"categories":[],"categories_nodes":[],"categories_segments":[],"categories_sizes":[],"default_left":[0,0,1,0,0,0,0,0,1,0,0,1,0,0,0,0,0],"id":36,"left_children":[1,-1,3,5,-1,-1,7,9,11,-1,-1,13,15,-1,-1,-1,-1],"loss_changes":[5.0969213E-1,0E0,5.5751693E-1,5.295183E-1,0E0,0E0,6.852818E-1,6.7175037E-1,7.577355E-1,0E0,0E0,6.7085886E-1,7.0437187E-1,0E0,0E0,0E0,0E0],"parents":[2147483647,0,0,2,2,3,3,6,6,7,7,8,8,11,11,12,12],"right_children":[2,-1,4,6,-1,-1,8,10,12,-1,-1,14,16,-1,-1,-1,-1],"split_conditions":[1.0000001E1,-1.2549421E-1,1.5E0,8.000001E0,1.615473E-1,1.2388878E-1,7.8E1,2.2E1,2.5E0,5.070939E-2,-1.9148223E-1,1.5E0,1.5E0,-6.8508706E-4,-1.5352075E-1,1.9435413E-1,2.1637177E-2],"split_indices":[1866,0,2396,2687,0,0,2874,1451,0,0,0,1065,2346,0,0,0,0],"split_type":[0,0,0,0,0,0,0,0,0,0,0,0,0,0,0,0,0],"sum_hessian":[3.2207287E1,1.5637887E0,3.0643497E1,2.9505728E1,1.1377707E0,1.94209E0,2.7563637E1,3.213502E0,2.4350136E1,1.0068465E0,2.2066555E0,1.1919522E1,1.2430613E1,9.341076E0,2.5784464E0,1.7610685E0,1.0669544E1],"tree_param":{"num_deleted":"0","num_feature":"3082","num_nodes":"17","size_leaf_vector":"0"}},{"base_weights":[9.12897E-3,3.8003325E-1,-3.5416976E-2,3.6002043E-1,-8.714058E-2,4.8432836E-1,1.0484428E-1,4.0327805E-1,-1.2604009E-1,3.745371E-1,-1.715325E-1,-8.123977E-2,-5.7050586E-1,-4.6208763E-1,-1.5034332E-2,-1.21235244E-1,-6.76823E-1],"categories":[],"categories_nodes":[],"categories_segments":[],"categories_sizes":[],"default_left":[0,0,0,0,0,0,0,0,0,0,1,0,0,0,0,0,0],"id":37,"left_children":[1,-1,3,5,7,-1,-1,-1,9,-1,11,13,15,-1,-1,-1,-1],"loss_changes":[5.492743E-1,0E0,6.422626E-1,6.4989835E-2,5.7006216E-1,0E0,0E0,0E0,6.5585864E-1,0E0,8.3628273E-1,5.2621657E-1,1.2598789E-1,0E0,0E0,0E0,0E0],"parents":[2147483647,0,0,2,2,3,3,4,4,8,8,10,10,11,11,12,12],"right_children":[2,-1,4,6,8,-1,-1,-1,10,-1,12,14,16,-1,-1,-1,-1],"split_conditions":[4.5E0,1.14009984E-1,4.5E0,2.8E1,3.5E0,1.4529851E-1,3.1453285E-2,1.2098342E-1,6.000001E0,1.1236114E-1,3.5E0,4.000001E0,3.5E0,-1.3862629E-1,-4.5103E-3,-3.6370575E-2,-2.0304692E-1],"split_indices":[2389,0,3053,1451,1086,0,0,0,2658,0,1063,110,1451,0,0,0,0],"split_type":[0,0,0,0,0,0,0,0,0,0,0,0,0,0,0,0,0],"sum_hessian":[3.1429827E1,2.5624826E0,2.8867344E1,2.6496637E0,2.621768E1,1.177859E0,1.4718047E0,1.2383412E0,2.497934E1,1.4784293E0,2.350091E1,2.0145378E1,3.3555324E0,2.097851E0,1.8047525E1,1.0516845E0,2.3038478E0],"tree_param":{"num_deleted":"0","num_feature":"3082","num_nodes":"17","size_leaf_vector":"0"}},{"base_weights":[1.0597139E-2,3.421396E-1,-2.7846772E-2,5.292638E-1,1.4446595E-2,-4.6394777E-1,7.3455297E-3,-4.0912196E-1,4.350864E-2,-3.2963917E-1,8.4917754E-2,4.725084E-1,3.152947E-2,4.5705962E-1,-2.7489074E-2],"categories":[],"categories_nodes":[],"categories_segments":[],"categories_sizes":[],"default_left":[0,0,0,0,0,0,0,0,0,0,0,0,0,0,0],"id":38,"left_children":[1,3,5,-1,-1,-1,7,-1,9,-1,11,-1,13,-1,-1],"loss_changes":[4.099701E-1,1.9714531E-1,4.4967785E-1,0E0,0E0,0E0,4.378601E-1,0E0,4.3849063E-1,0E0,4.963799E-1,0E0,5.848701E-1,0E0,0E0],"parents":[2147483647,0,0,1,1,2,2,6,6,8,8,10,10,12,12],"right_children":[2,4,6,-1,-1,-1,8,-1,10,-1,12,-1,14,-1,-1],"split_conditions":[3.4E1,8.25E1,3E1,1.5877914E-1,4.3339785E-3,-1.3918434E-1,2.6E1,-1.22736596E-1,1.6E1,-9.889176E-2,1.5E0,1.4175253E-1,5E0,1.3711789E-1,-8.246723E-3],"split_indices":[2396,15,1030,0,0,0,2258,0,2357,0,2346,0,3053,0,0],"split_type":[0,0,0,0,0,0,0,0,0,0,0,0,0,0,0],"sum_hessian":[3.0417643E1,2.339755E0,2.8077887E1,1.0977693E0,1.2419857E0,1.186883E0,2.6891005E1,1.3244874E0,2.5566517E1,1.8585064E0,2.370801E1,1.919842E0,2.1788168E1,1.8323544E0,1.9955814E1],"tree_param":{"num_deleted":"0","num_feature":"3082","num_nodes":"15","size_leaf_vector":"0"}},{"base_weights":[9.832885E-3,-3.6095348E-1,4.4638585E-2,-3.464318E-1,7.982982E-2,-3.115472E-1,1.09313264E-1,-2.4009567E-2,2.4049266E-1,-5.2180016E-1,6.598743E-2,4.9223298E-1,3.855806E-2,1.346369E-1,-1.5546826E-1,7.981118E-1,6.5706167E-3,-4.705886E-1,2.8053144E-1],"categories":[],"categories_nodes":[],"categories_segments":[],"categories_sizes":[],"default_left":[0,0,0,0,0,0,1,0,1,0,1,1,1,0,0,0,0,0,0],"id":39,"left_children":[1,-1,3,-1,5,-1,7,9,11,-1,13,15,17,-1,-1,-1,-1,-1,-1],"loss_changes":[4.1497877E-1,0E0,4.2874858E-1,0E0,3.5197178E-1,0E0,4.6681112E-1,6.608671E-1,6.6110206E-1,0E0,2.1446064E-1,8.667313E-1,1.1802539E0,0E0,0E0,0E0,0E0,0E0,0E0],"parents":[2147483647,0,0,2,2,4,4,6,6,7,7,8,8,10,10,11,11,12,12],"right_children":[2,-1,4,-1,6,-1,8,10,12,-1,14,16,18,-1,-1,-1,-1,-1,-1],"split_conditions":[1.0000001E1,-1.08286045E-1,3.8E1,-1.0392954E-1,1.0000001E1,-9.346416E-2,2.5E0,8.000001E0,2.5E0,-1.5654005E-1,1.5E0,1.5E0,1.5E0,4.039107E-2,-4.6640478E-2,2.3943354E-1,1.9711852E-3,-1.4117658E-1,8.4159434E-2],"split_indices":[1550,0,2815,0,1866,0,0,811,15,0,1065,1063,1063,0,0,0,0,0,0],"split_type":[0,0,0,0,0,0,0,0,0,0,0,0,0,0,0,0,0,0,0],"sum_hessian":[2.9906744E1,1.7623062E0,2.8144438E1,1.5933805E0,2.6551058E1,1.1898313E0,2.5361227E1,1.2983029E1,1.2378197E1,1.2532257E0,1.1729804E1,4.86976E0,7.508437E0,9.25337E0,2.476433E0,2.593181E0,2.276579E0,2.1144779E0,5.393959E0],"tree_param":{"num_deleted":"0","num_feature":"3082","num_nodes":"19","size_leaf_vector":"0"}},{"base_weights":[-3.67996E-3,3.4317005E-1,-4.5379736E-2,3.435657E-1,-8.6935684E-2,3.6489597E-1,-1.2189265E-1,-1.6237496E-1,3.308287E-1,-6.6692436E-1,-9.242871E-2,-2.5741634E-1,6.710029E-2],"categories":[],"categories_nodes":[],"categories_segments":[],"categories_sizes":[],"default_left":[0,0,0,0,0,0,1,0,0,0,0,0,0],"id":40,"left_children":[1,-1,3,-1,5,-1,7,9,-1,-1,11,-1,-1],"loss_changes":[4.5562145E-1,0E0,4.8312065E-1,0E0,4.572518E-1,0E0,5.1201993E-1,7.7211E-1,0E0,0E0,5.939338E-1,0E0,0E0],"parents":[2147483647,0,0,2,2,4,4,6,6,7,7,10,10],"right_children":[2,-1,4,-1,6,-1,8,10,-1,-1,12,-1,-1],"split_conditions":[4.5E0,1.0295102E-1,8.000001E0,1.03069715E-1,3.5E0,1.09468795E-1,-9.536743E-7,8.000001E0,9.924861E-2,-2.0007731E-1,1.12E2,-7.72249E-2,2.0130087E-2],"split_indices":[2389,0,2687,0,1086,0,218,1815,0,0,15,0,0],"split_type":[0,0,0,0,0,0,0,0,0,0,0,0,0],"sum_hessian":[2.9424616E1,2.3820105E0,2.7042606E1,1.9088706E0,2.5133736E1,1.1271015E0,2.4006634E1,2.2624857E1,1.3817773E0,1.7154977E0,2.0909359E1,9.977183E0,1.0932176E1],"tree_param":{"num_deleted":"0","num_feature":"3082","num_nodes":"13","size_leaf_vector":"0"}},{"base_weights":[1.9424977E-3,3.7554315E-1,-3.0073471E-2,3.2593238E-1,-6.17326E-2,-9.469788E-2,3.4407127E-1,-1.3102361E-2,-3.903012E-1,-6.028738E-1,7.0060186E-2,-6.376012E-2,-4.8957586E-1,4.3937364E-1,3.2658153E-3,-5.63344E-1,-1.5676597E-1],"categories":[],"categories_nodes":[],"categories_segments":[],"categories_sizes":[],"default_left":[0,0,0,0,1,1,0,0,0,0,0,0,1,0,0,0,0],"id":41,"left_children":[1,-1,3,-1,5,7,-1,9,11,-1,13,-1,15,-1,-1,-1,-1],"loss_changes":[3.6551145E-1,0E0,3.3798403E-1,0E0,3.9029384E-1,6.1030674E-1,0E0,1.0737121E0,1.4658254E-1,0E0,4.7533184E-1,0E0,1.1270642E-2,0E0,0E0,0E0,0E0],"parents":[2147483647,0,0,2,2,4,4,5,5,7,7,8,8,10,10,12,12],"right_children":[2,-1,4,-1,6,8,-1,10,12,-1,14,-1,16,-1,-1,-1,-1],"split_conditions":[8.000001E0,1.1266295E-1,1.5E0,9.777972E-2,1.5E0,3.5E0,1.0322139E-1,4.000001E0,1.05E1,-1.8086214E-1,1.5E0,-1.9128036E-2,2.5E0,1.318121E-1,9.797446E-4,-1.690032E-1,-4.7029793E-2],"split_indices":[2658,0,3053,0,1638,1065,0,110,1451,0,2346,0,1063,0,0,0,0],"split_type":[0,0,0,0,0,0,0,0,0,0,0,0,0,0,0,0,0],"sum_hessian":[2.8613909E1,1.411616E0,2.7202293E1,1.4624164E0,2.5739878E1,2.451505E1,1.2248268E0,2.003038E1,4.4846706E0,1.7030885E0,1.8327291E1,1.4284325E0,3.0562384E0,1.9526836E0,1.6374607E1,1.934714E0,1.1215243E0],"tree_param":{"num_deleted":"0","num_feature":"3082","num_nodes":"17","size_leaf_vector":"0"}},{"base_weights":[1.3052165E-3,3.0988386E-1,-3.5678316E-2,3.6966994E-1,-6.930335E-2,2.6953056E-1,-1.0835371E-1,-3.7782508E-1,-4.610996E-2,-5.3345424E-1,-1.2539633E-1,1.9217007E-1,-1.7053078E-1,5.914455E-1,2.7418977E-2,2.5158182E-1,-3.974636E-1],"categories":[],"categories_nodes":[],"categories_segments":[],"categories_sizes":[],"default_left":[0,0,0,0,0,0,0,0,0,0,0,0,0,0,0,0,0],"id":42,"left_children":[1,-1,3,-1,5,-1,7,9,11,-1,-1,13,15,-1,-1,-1,-1],"loss_changes":[3.420992E-1,0E0,3.9089578E-1,0E0,3.6778802E-1,0E0,3.7939078E-1,1.020422E-1,6.363158E-1,0E0,0E0,4.7409374E-1,1.4318788E0,0E0,0E0,0E0,0E0],"parents":[2147483647,0,0,2,2,4,4,6,6,7,7,8,8,11,11,12,12],"right_children":[2,-1,4,-1,6,-1,8,10,12,-1,-1,14,16,-1,-1,-1,-1],"split_conditions":[4.5E0,9.296516E-2,4.5E0,1.1090099E-1,2.2E1,8.085917E-2,2.5E0,1.6E1,4.5E0,-1.6003628E-1,-3.7618898E-2,8.000001E0,1.5E0,1.7743365E-1,8.225693E-3,7.5474545E-2,-1.19239084E-1],"split_indices":[2389,0,2918,0,2396,0,0,15,0,0,0,2346,1505,0,0,0,0],"split_type":[0,0,0,0,0,0,0,0,0,0,0,0,0,0,0,0,0],"sum_hessian":[2.8007494E1,2.2077525E0,2.5799742E1,1.2107166E0,2.4589024E1,1.9310938E0,2.265793E1,3.3002212E0,1.935771E1,1.35286E0,1.9473614E0,6.4536734E0,1.29040365E1,1.1285911E0,5.3250823E0,4.4738016E0,8.430235E0],"tree_param":{"num_deleted":"0","num_feature":"3082","num_nodes":"17","size_leaf_vector":"0"}},{"base_weights":[7.930928E-3,4.0767324E-1,-2.1723988E-2,-4.5575258E-1,1.803135E-2,1.530804E-1,-7.019499E-2,-3.3748215E-1,3.586103E-1,2.4267903E-1,-2.2991751E-1,5.1498175E-1,-1.6429403E-1,-2.6013035E-2,6.4746606E-1,1.0208205E-1,-4.4304326E-1,1.3703276E-1,6.166333E-1,1.435118E-1,-1.804032E-1,1.22978546E-1,-5.8067423E-1],"categories":[],"categories_nodes":[],"categories_segments":[],"categories_sizes":[],"default_left":[0,0,0,0,0,0,0,0,0,0,0,0,0,0,0,0,0,0,0,0,0,0,0],"id":43,"left_children":[1,-1,3,-1,5,7,9,-1,11,13,15,17,-1,19,-1,-1,21,-1,-1,-1,-1,-1,-1],"loss_changes":[3.4438372E-1,0E0,4.7925895E-1,0E0,3.201771E-1,1.1873925E0,8.7504303E-1,0E0,7.3371065E-1,6.7236555E-1,8.4950846E-1,1.5957093E-1,0E0,1.4586371E-1,0E0,0E0,6.252923E-1,0E0,0E0,0E0,0E0,0E0,0E0],"parents":[2147483647,0,0,2,2,4,4,5,5,6,6,8,8,9,9,10,10,11,11,13,13,16,16],"right_children":[2,-1,4,-1,6,8,10,-1,12,14,16,18,-1,20,-1,-1,22,-1,-1,-1,-1,-1,-1],"split_conditions":[1.2000001E1,1.2230197E-1,2E1,-1.3672578E-1,3.5E0,3.5E0,3.5E0,-1.0124465E-1,1.15E1,1.95E1,1.15E1,4.000001E0,-4.9288213E-2,1.5E0,1.9423983E-1,3.0624617E-2,3.5E0,4.110983E-2,1.8498999E-1,4.305354E-2,-5.412096E-2,3.6893565E-2,-1.7420228E-1],"split_indices":[191,0,1345,0,1063,0,0,0,1065,1065,1505,2958,0,1065,0,0,1715,0,0,0,0,0,0],"split_type":[0,0,0,0,0,0,0,0,0,0,0,0,0,0,0,0,0,0,0,0,0,0,0],"sum_hessian":[2.7304222E1,1.0053304E0,2.6298893E1,1.3287156E0,2.4970177E1,9.576395E0,1.5393783E1,2.6379876E0,6.938407E0,5.027073E0,1.036671E1,5.3528266E0,1.5855802E0,3.5838792E0,1.4431934E0,4.2567396E0,6.10997E0,1.6322072E0,3.7206197E0,1.7417967E0,1.8420825E0,1.2159033E0,4.894067E0],"tree_param":{"num_deleted":"0","num_feature":"3082","num_nodes":"23","size_leaf_vector":"0"}},{"base_weights":[9.1925515E-3,3.3452684E-1,-2.5612628E-2,3.209417E-1,-6.407413E-2,-3.9870474E-1,-1.3169416E-2,-7.45176E-2,-5.353202E-1,4.1259417E-1,-5.343522E-2,-4.765465E-1,1.1242715E-4,-4.8594236E-1,6.1972547E-2],"categories":[],"categories_nodes":[],"categories_segments":[],"categories_sizes":[],"default_left":[0,0,0,0,0,0,0,0,0,0,0,0,0,0,0],"id":44,"left_children":[1,-1,3,-1,5,7,9,-1,-1,-1,11,-1,13,-1,-1],"loss_changes":[3.198592E-1,0E0,3.6396164E-1,0E0,4.03966E-1,9.907794E-2,3.9724347E-1,0E0,0E0,0E0,4.7311842E-1,0E0,6.1744905E-1,0E0,0E0],"parents":[2147483647,0,0,2,2,4,4,5,5,6,6,10,10,12,12],"right_children":[2,-1,4,-1,6,8,10,-1,-1,-1,12,-1,14,-1,-1],"split_conditions":[8.000001E0,1.00358054E-1,3.4E1,9.628251E-2,7.8E1,3.5E0,3.5E0,-2.235528E-2,-1.6059607E-1,1.23778254E-1,4.000001E0,-1.4296396E-1,1.2000001E1,-1.4578271E-1,1.8591765E-2],"split_indices":[2687,0,2396,0,2874,1063,1086,0,0,0,110,0,1886,0,0],"split_type":[0,0,0,0,0,0,0,0,0,0,0,0,0,0,0],"sum_hessian":[2.6491156E1,1.7279631E0,2.4763191E1,1.7400568E0,2.3023134E1,2.1377707E0,2.0885365E1,1.0919768E0,1.045794E0,1.0055966E0,1.9879768E1,1.3458595E0,1.8533909E1,1.3185031E0,1.7215405E1],"tree_param":{"num_deleted":"0","num_feature":"3082","num_nodes":"15","size_leaf_vector":"0"}},{"base_weights":[9.881282E-4,-3.6873415E-1,2.9632496E-2,-3.5467437E-1,5.9397038E-2,-3.185103E-1,8.933342E-2,-5.7580236E-2,2.1608327E-1,1.9126606E-1,-1.4326121E-1,4.237915E-1,6.069687E-2,-8.3310045E-3,-2.5588602E-1,7.755291E-1,-5.5260494E-2,-3.6546284E-1,2.5610176E-1],"categories":[],"categories_nodes":[],"categories_segments":[],"categories_sizes":[],"default_left":[0,0,0,0,0,0,1,0,1,0,0,1,1,0,0,0,0,0,0],"id":45,"left_children":[1,-1,3,-1,5,-1,7,9,11,-1,13,15,17,-1,-1,-1,-1,-1,-1],"loss_changes":[2.9534408E-1,0E0,3.167639E-1,0E0,3.0957383E-1,0E0,4.5573896E-1,2.7932465E-1,3.935424E-1,0E0,1.401229E-1,9.5142376E-1,8.096092E-1,0E0,0E0,0E0,0E0,0E0,0E0],"parents":[2147483647,0,0,2,2,4,4,6,6,7,7,8,8,10,10,11,11,12,12],"right_children":[2,-1,4,-1,6,-1,8,10,12,-1,14,16,18,-1,-1,-1,-1,-1,-1],"split_conditions":[1.5E0,-1.1062025E-1,4.4E1,-1.06402315E-1,4E1,-9.555309E-2,2.5E0,1.5E0,2.5E0,5.737982E-2,1.5E0,2.5E0,2.5E0,-2.4993015E-3,-7.6765805E-2,2.3265873E-1,-1.6578149E-2,-1.09638855E-1,7.683053E-2],"split_indices":[15,0,1682,0,2168,0,0,1065,15,0,1505,1065,1065,0,0,0,0,0,0],"split_type":[0,0,0,0,0,0,0,0,0,0,0,0,0,0,0,0,0,0,0],"sum_hessian":[2.5856018E1,1.0054544E0,2.4850563E1,1.001653E0,2.3848911E1,1.0429884E0,2.2805922E1,1.0815533E1,1.1990389E1,2.4545095E0,8.361024E0,4.3920736E0,7.5983157E0,4.2924376E0,4.068586E0,2.1757066E0,2.2163668E0,2.1151304E0,5.4831853E0],"tree_param":{"num_deleted":"0","num_feature":"3082","num_nodes":"19","size_leaf_vector":"0"}},{"base_weights":[-5.4801777E-3,3.037269E-1,-4.445212E-2,3.154575E-1,-8.88714E-2,3.112569E-1,-1.2344322E-1,2.1556741E-1,-1.7083003E-1,2.8733405E-1,-2.1171737E-1,-3.5387915E-1,-1.9118475E-2],"categories":[],"categories_nodes":[],"categories_segments":[],"categories_sizes":[],"default_left":[0,0,0,0,0,0,0,0,0,0,0,0,0],"id":46,"left_children":[1,-1,3,-1,5,-1,7,-1,9,-1,11,-1,-1],"loss_changes":[3.3215162E-1,0E0,4.1740727E-1,0E0,3.4911776E-1,0E0,3.8044667E-1,0E0,4.2284364E-1,0E0,4.9476057E-1,0E0,0E0],"parents":[2147483647,0,0,2,2,4,4,6,6,8,8,10,10],"right_children":[2,-1,4,-1,6,-1,8,-1,10,-1,12,-1,-1],"split_conditions":[4.5E0,9.1118075E-2,4.5E0,9.463725E-2,6.000001E0,9.337707E-2,6.000001E0,6.467023E-2,1.05E1,8.620022E-2,3.52E2,-1.0616375E-1,-5.7355426E-3],"split_indices":[2389,0,3053,0,2658,0,1321,0,1086,0,1065,0,0],"split_type":[0,0,0,0,0,0,0,0,0,0,0,0,0],"sum_hessian":[2.5443132E1,2.0874698E0,2.3355661E1,1.895495E0,2.1460167E1,1.070237E0,2.0389929E1,2.0653167E0,1.8324614E1,1.007507E0,1.7317106E1,9.481325E0,7.8357806E0],"tree_param":{"num_deleted":"0","num_feature":"3082","num_nodes":"13","size_leaf_vector":"0"}},{"base_weights":[7.880184E-3,2.9633138E-1,-2.7860804E-2,3.2176E-1,-6.3141674E-2,-3.900168E-1,-1.3456347E-2,2.840118E-1,-5.658556E-2,-4.119479E-1,1.8983515E-2,-8.380808E-2,-5.498367E-1,2.4973099E-1,-4.341102E-2],"categories":[],"categories_nodes":[],"categories_segments":[],"categories_sizes":[],"default_left":[0,0,0,0,0,0,0,0,0,0,0,0,0,0,0],"id":47,"left_children":[1,-1,3,-1,5,-1,7,-1,9,11,13,-1,-1,-1,-1],"loss_changes":[2.7233332E-1,0E0,3.1271568E-1,0E0,3.5802966E-1,0E0,2.7846727E-1,0E0,5.0990283E-1,1.0426116E-1,2.4658042E-1,0E0,0E0,0E0,0E0],"parents":[2147483647,0,0,2,2,4,4,6,6,8,8,9,9,10,10],"right_children":[2,-1,4,-1,6,-1,8,-1,10,12,14,-1,-1,-1,-1],"split_conditions":[3.4E1,8.889942E-2,4.000001E0,9.6528E-2,7.8E1,-1.1700504E-1,8.000001E0,8.520354E-2,2.5E0,1.5E0,1.5E0,-2.5142426E-2,-1.6495101E-1,7.49193E-2,-1.3023307E-2],"split_indices":[2396,0,2687,0,2874,0,2389,0,0,1065,317,0,0,0,0],"split_type":[0,0,0,0,0,0,0,0,0,0,0,0,0,0,0],"sum_hessian":[2.4614868E1,1.9098836E0,2.2704985E1,1.3368933E0,2.1368092E1,1.9156263E0,1.9452465E1,1.7559941E0,1.7696472E1,2.3227065E0,1.5373765E1,1.1629589E0,1.1597477E0,2.6332033E0,1.2740562E1],"tree_param":{"num_deleted":"0","num_feature":"3082","num_nodes":"15","size_leaf_vector":"0"}},{"base_weights":[6.216818E-3,-2.3433295E-1,4.3700945E-2,-6.235358E-1,3.218068E-1,-4.157202E-1,8.840942E-2,-3.054531E-1,1.2304863E-1,-2.2639619E-1,1.5334618E-1,-1.1259292E-1,1.8891636E-1,2.7087617E-1,-1.348643E-1],"categories":[],"categories_nodes":[],"categories_segments":[],"categories_sizes":[],"default_left":[0,1,0,0,0,0,0,0,0,0,0,0,1,0,0],"id":48,"left_children":[1,3,5,-1,-1,-1,7,-1,9,-1,11,-1,13,-1,-1],"loss_changes":[2.3628947E-1,9.662559E-1,4.995758E-1,0E0,0E0,0E0,3.289888E-1,0E0,2.501187E-1,0E0,2.0401123E-1,0E0,4.9860954E-1,0E0,0E0],"parents":[2147483647,0,0,1,1,2,2,6,6,8,8,10,10,12,12],"right_children":[2,4,6,-1,-1,-1,8,-1,10,-1,12,-1,14,-1,-1],"split_conditions":[8.000001E0,-9.536743E-7,7E0,-1.8706074E-1,9.654204E-2,-1.24716066E-1,1.0000001E1,-9.163593E-2,3.8E1,-6.791886E-2,8.000001E0,-3.3777878E-2,3.5E0,8.126286E-2,-4.045929E-2],"split_indices":[1815,218,2775,0,0,0,1550,0,2815,0,811,0,1065,0,0],"split_type":[0,0,0,0,0,0,0,0,0,0,0,0,0,0,0],"sum_hessian":[2.4069754E1,2.5370464E0,2.1532707E1,1.4212373E0,1.115809E0,1.1736718E0,2.0359035E1,1.0137814E0,1.9345253E1,1.0270519E0,1.8318201E1,1.9056091E0,1.6412592E1,1.322763E1,3.1849632E0],"tree_param":{"num_deleted":"0","num_feature":"3082","num_nodes":"15","size_leaf_vector":"0"}},{"base_weights":[-1.149906E-2,3.0839634E-1,-3.8405314E-2,2.3436145E-1,-7.292491E-2,2.695773E-1,-1.0255844E-1,-4.3522063E-1,-5.905778E-2,4.627443E-3,-2.7557278E-1,-8.227156E-2,1.883491E-1,-4.375323E-1,1.2137893E-1],"categories":[],"categories_nodes":[],"categories_segments":[],"categories_sizes":[],"default_left":[0,0,0,0,0,0,0,0,1,1,1,0,0,0,0],"id":49,"left_children":[1,-1,3,-1,5,-1,7,-1,9,11,13,-1,-1,-1,-1],"loss_changes":[2.2379778E-1,0E0,2.3934077E-1,0E0,2.4804513E-1,0E0,2.7399534E-1,0E0,2.697742E-1,2.714182E-1,3.3870056E-1,0E0,0E0,0E0,0E0],"parents":[2147483647,0,0,2,2,4,4,6,6,8,8,9,9,10,10],"right_children":[2,-1,4,-1,6,-1,8,-1,10,12,14,-1,-1,-1,-1],"split_conditions":[8.000001E0,9.25189E-2,4.5E0,7.030844E-2,4.5E0,8.087319E-2,8.000001E0,-1.305662E-1,4.5E0,1.5E0,1.5E0,-2.468147E-2,5.650473E-2,-1.312597E-1,3.641368E-2],"split_indices":[2658,0,3053,0,2918,0,811,0,15,15,1451,0,0,0,0],"split_type":[0,0,0,0,0,0,0,0,0,0,0,0,0,0,0],"sum_hessian":[2.3625202E1,1.0212629E0,2.2603941E1,1.8889126E0,2.0715027E1,1.0047828E0,1.9710245E1,1.2379977E0,1.8472246E1,1.5029988E1,3.4422586E0,1.0578588E1,4.4514003E0,2.3721652E0,1.0700934E0],"tree_param":{"num_deleted":"0","num_feature":"3082","num_nodes":"15","size_leaf_vector":"0"}},{"base_weights":[-6.6260784E-3,2.743395E-1,-3.6521778E-2,2.526955E-1,-6.921604E-2,-3.3193457E-1,-2.8224194E-2,-2.6629922E-1,3.0145552E-2,9.184583E-3,-4.1793007E-1,-2.1812777E-1,8.271354E-2,-5.71802E-1,2.503183E-1,-2.2755936E-1,1.3335708E-1],"categories":[],"categories_nodes":[],"categories_segments":[],"categories_sizes":[],"default_left":[0,0,0,0,0,0,0,0,0,0,0,1,0,0,0,0,0],"id":50,"left_children":[1,-1,3,-1,5,-1,7,9,11,-1,-1,13,15,-1,-1,-1,-1],"loss_changes":[2.1326494E-1,0E0,2.3263116E-1,0E0,2.192269E-1,0E0,2.7837524E-1,1.6809678E-1,2.3367786E-1,0E0,0E0,6.6700137E-1,2.5599426E-1,0E0,0E0,0E0,0E0],"parents":[2147483647,0,0,2,2,4,4,6,6,7,7,8,8,11,11,12,12],"right_children":[2,-1,4,-1,6,-1,8,10,12,-1,-1,14,16,-1,-1,-1,-1],"split_conditions":[8.000001E0,8.2301855E-2,3.4E1,7.580865E-2,7.8E1,-9.958038E-2,2.5E0,1.5E0,8.000001E0,2.755375E-3,-1.2537903E-1,-9.536743E-7,2.000001E0,-1.7154062E-1,7.509549E-2,-6.826781E-2,4.0007126E-2],"split_indices":[2687,0,2396,0,2874,0,0,1065,1815,0,0,218,110,0,0,0,0],"split_type":[0,0,0,0,0,0,0,0,0,0,0,0,0,0,0,0,0],"sum_hessian":[2.3196875E1,1.4445125E0,2.1752361E1,1.5258114E0,2.0226551E1,1.7720206E0,1.845453E1,2.9322724E0,1.5522258E1,1.3745004E0,1.5577719E0,2.1619835E0,1.3360274E1,1.1061846E0,1.055799E0,1.3845196E0,1.1975755E1],"tree_param":{"num_deleted":"0","num_feature":"3082","num_nodes":"17","size_leaf_vector":"0"}},{"base_weights":[-1.34710185E-2,2.2335646E-1,-4.7928967E-2,1.046436E-2,3.2556504E-1,-3.2184157E-1,-1.5578776E-2,2.307582E-1,-4.7860265E-2,-3.6393452E-1,-6.049588E-3,-3.2388392E-1,3.9315056E-2,3.4704906E-1,-1.137691E-2],"categories":[],"categories_nodes":[],"categories_segments":[],"categories_sizes":[],"default_left":[0,1,0,0,0,0,0,0,0,0,0,0,0,0,0],"id":51,"left_children":[1,3,5,-1,-1,-1,7,-1,9,-1,11,-1,13,-1,-1],"loss_changes":[2.0470273E-1,6.614038E-2,1.8617636E-1,0E0,0E0,0E0,1.7285465E-1,0E0,2.4649301E-1,0E0,2.6703286E-1,0E0,2.5862676E-1,0E0,0E0],"parents":[2147483647,0,0,1,1,2,2,6,6,8,8,10,10,12,12],"right_children":[2,4,6,-1,-1,-1,8,-1,10,-1,12,-1,14,-1,-1],"split_conditions":[1.5E0,5.5E0,1.6E1,3.1393082E-3,9.766952E-2,-9.655248E-2,3.4E1,6.9227464E-2,7.8E1,-1.0918036E-1,2.000001E0,-9.716518E-2,8.000001E0,1.0411472E-1,-3.413073E-3],"split_indices":[1451,0,2357,0,0,0,2396,0,2874,0,110,0,2389,0,0],"split_type":[0,0,0,0,0,0,0,0,0,0,0,0,0,0,0],"sum_hessian":[2.2772488E1,2.1961913E0,2.0576296E1,1.0699518E0,1.1262394E0,1.2282121E0,1.9348083E1,1.529361E0,1.7818722E1,1.181634E0,1.6637089E1,1.311172E0,1.5325916E1,1.3407058E0,1.398521E1],"tree_param":{"num_deleted":"0","num_feature":"3082","num_nodes":"15","size_leaf_vector":"0"}},{"base_weights":[-1.0958012E-2,-1.0434049E-1,7.127977E-2,-3.5824695E-1,-4.2796247E-2,-2.038857E-1,1.1458954E-1,9.147563E-2,-1.7020182E-1,-1.9324969E-1,1.7799763E-1,-1.3686918E-1,2.0069069E-1,1.2885298E-1,-4.7917125E-1,-5.79311E-2,2.4638669E-1,-8.0849536E-2,2.3939088E-1,3.2239497E-1,-9.54022E-2,4.0278515E-1,-1.26945935E-2],"categories":[],"categories_nodes":[],"categories_segments":[],"categories_sizes":[],"default_left":[1,0,0,0,0,0,0,0,0,0,0,0,0,0,0,0,1,0,0,1,0,0,0],"id":52,"left_children":[1,3,5,-1,7,-1,9,11,13,-1,15,-1,-1,17,-1,-1,19,-1,-1,21,-1,-1,-1],"loss_changes":[1.8691263E-1,1.6202244E-1,1.785379E-1,0E0,1.9127437E-1,0E0,2.6649207E-1,1.6840066E-1,5.810057E-1,0E0,1.8175524E-1,0E0,0E0,1.0381819E-1,0E0,0E0,2.4476337E-1,0E0,0E0,1.9280088E-1,0E0,0E0,0E0],"parents":[2147483647,0,0,1,1,2,2,4,4,6,6,7,7,8,8,10,10,13,13,16,16,19,19],"right_children":[2,4,6,-1,8,-1,10,12,14,-1,16,-1,-1,18,-1,-1,20,-1,-1,22,-1,-1,-1],"split_conditions":[2.5E0,4.000001E0,1.5E0,-1.0747409E-1,1.5E0,-6.1165713E-2,7.8E1,1.2000001E1,4.000001E0,-5.797491E-2,3.5E0,-4.1060753E-2,6.0207207E-2,2.5E0,-1.4375138E-1,-1.737933E-2,5.5E0,-2.4254862E-2,7.1817264E-2,7.5E0,-2.8620662E-2,1.2083555E-1,-3.8083782E-3],"split_indices":[0,110,1065,0,1505,0,2874,1065,0,0,2958,0,0,15,0,0,1064,0,0,1065,0,0,0],"split_type":[0,0,0,0,0,0,0,0,0,0,0,0,0,0,0,0,0,0,0,0,0,0,0],"sum_hessian":[2.2370487E1,1.0349584E1,1.2020905E1,1.0786301E0,9.270954E0,1.1305327E0,1.0890371E1,4.65115E0,4.6198034E0,1.5103034E0,9.380068E0,1.4229224E0,3.2282279E0,2.6438E0,1.9760035E0,2.1423392E0,7.2377286E0,1.0052711E0,1.6385288E0,5.9674153E0,1.2703136E0,4.649861E0,1.3175542E0],"tree_param":{"num_deleted":"0","num_feature":"3082","num_nodes":"23","size_leaf_vector":"0"}},{"base_weights":[-1.8542308E-2,-4.6926454E-2,3.0184704E-1,2.7915412E-1,-7.763659E-2,2.0305014E-1,-1.13023266E-1,1.483788E-1,-1.4093466E-1,-3.9389163E-1,-8.0609575E-2,9.890152E-2,-1.5540724E-1],"categories":[],"categories_nodes":[],"categories_segments":[],"categories_sizes":[],"default_left":[1,0,0,0,0,0,0,0,0,0,0,0,0],"id":53,"left_children":[1,3,-1,-1,5,-1,7,-1,9,-1,11,-1,-1],"loss_changes":[2.2321036E-1,2.4179941E-1,0E0,0E0,2.3026505E-1,0E0,1.6083565E-1,0E0,2.4048981E-1,0E0,2.256712E-1,0E0,0E0],"parents":[2147483647,0,0,1,1,4,4,6,6,8,8,10,10],"right_children":[2,4,-1,-1,6,-1,8,-1,10,-1,12,-1,-1],"split_conditions":[1.5E0,8.000001E0,9.055412E-2,8.374624E-2,1.2000001E1,6.091504E-2,3.5E0,4.4513643E-2,2.5E0,-1.181675E-1,1.5E0,2.9670456E-2,-4.6622172E-2],"split_indices":[1638,2687,0,0,2389,0,3036,0,0,0,1505,0,0],"split_type":[0,0,0,0,0,0,0,0,0,0,0,0,0],"sum_hessian":[2.1987272E1,2.0981958E1,1.0053145E0,1.1096555E0,1.9872303E1,1.694389E0,1.8177914E1,1.337316E0,1.6840597E1,2.17805E0,1.4662547E1,4.2177877E0,1.0444759E1],"tree_param":{"num_deleted":"0","num_feature":"3082","num_nodes":"13","size_leaf_vector":"0"}},{"base_weights":[-7.03295E-3,2.2022499E-1,-4.0862203E-2,4.289097E-2,2.871285E-1,1.981441E-1,-7.1306504E-2,1.9222227E-1,-1.0354053E-1,-7.5101214E-3,-3.1372297E-1,-1.0375965E-1,1.5610196E-1,-5.17911E-1,-2.7309023E-3,-4.1409843E-3,-3.625295E-1,4.096413E-1,-1.688313E-1,1.9661637E-1,-1.8778454E-1],"categories":[],"categories_nodes":[],"categories_segments":[],"categories_sizes":[],"default_left":[0,1,0,0,0,0,0,0,1,1,0,1,1,0,0,0,0,0,0,0,0],"id":54,"left_children":[1,3,5,-1,-1,-1,7,-1,9,11,13,15,17,-1,19,-1,-1,-1,-1,-1,-1],"loss_changes":[1.8263409E-1,2.4261191E-2,1.6331233E-1,0E0,0E0,0E0,1.8063147E-1,0E0,3.510449E-1,2.2158682E-1,3.457086E-1,2.256702E-1,5.000346E-1,0E0,1.5393205E-1,0E0,0E0,0E0,0E0,0E0,0E0],"parents":[2147483647,0,0,1,1,2,2,6,6,8,8,9,9,10,10,11,11,12,12,14,14],"right_children":[2,4,6,-1,-1,-1,8,-1,10,12,14,16,18,-1,20,-1,-1,-1,-1,-1,-1],"split_conditions":[1.5E0,5.5E0,3.4E1,1.2867291E-2,8.6138554E-2,5.944323E-2,2.5E0,5.766668E-2,2.5E0,2.5E0,8.5E0,1.5E0,1.5E0,-1.553733E-1,4.5E0,-1.2422954E-3,-1.0875885E-1,1.22892395E-1,-5.0649393E-2,5.8984913E-2,-5.6335364E-2],"split_indices":[1451,0,2396,0,0,0,2850,0,15,0,0,1065,1063,0,1063,0,0,0,0,0,0],"split_type":[0,0,0,0,0,0,0,0,0,0,0,0,0,0,0,0,0,0,0,0,0],"sum_hessian":[2.1585323E1,2.082904E0,1.950242E1,1.0201057E0,1.0627985E0,1.5811347E0,1.7921286E1,1.4122368E0,1.6509048E1,1.2042619E1,4.4664297E0,7.812506E0,4.2301126E0,2.2945476E0,2.171882E0,6.3745117E0,1.4379942E0,2.2296584E0,2.0004542E0,1.0154812E0,1.1564006E0],"tree_param":{"num_deleted":"0","num_feature":"3082","num_nodes":"21","size_leaf_vector":"0"}},{"base_weights":[-4.7999998E-3,1.5533479E-1,-4.2488914E-2,-1.13432236E-1,3.2236117E-1,8.944786E-2,-1.0910099E-1,-3.43984E-1,2.7108923E-1,9.7890235E-2,-2.0182204E-1,5.557138E-1,-2.5698355E-1,-1.0188287E-1,3.697023E-1,5.0720043E-2,-3.7995324E-1,5.583563E-2,8.3536434E-1,6.86711E-2,-5.0054795E-1,-1.16057046E-1,-6.0012424E-1],"categories":[],"categories_nodes":[],"categories_segments":[],"categories_sizes":[],"default_left":[0,1,0,0,0,0,0,0,0,0,0,0,0,0,0,0,0,0,0,0,0,0,0],"id":55,"left_children":[1,3,5,-1,-1,7,9,-1,11,13,15,17,-1,-1,-1,-1,19,-1,-1,-1,21,-1,-1],"loss_changes":[1.4074427E-1,2.3630226E-1,1.7478423E-1,0E0,0E0,6.3247883E-1,2.6787806E-1,0E0,9.5229983E-1,2.9140878E-1,4.356213E-1,4.8676503E-1,0E0,0E0,0E0,0E0,3.343621E-1,0E0,0E0,0E0,1.02286935E-1,0E0,0E0],"parents":[2147483647,0,0,1,1,2,2,5,5,6,6,8,8,9,9,10,10,11,11,16,16,20,20],"right_children":[2,4,6,-1,-1,8,10,-1,12,14,16,18,-1,-1,-1,-1,20,-1,-1,-1,22,-1,-1],"split_conditions":[3.5E0,4.5E0,2.5E0,-3.4029674E-2,9.670836E-2,3.5E0,3.5E0,-1.03195205E-1,3.5E0,1.95E1,1.15E1,4.000001E0,-7.709507E-2,-3.0564861E-2,1.109107E-1,1.5216013E-2,5.5E0,1.675069E-2,2.506093E-1,2.060133E-2,7.5E0,-3.4817114E-2,-1.8003727E-1],"split_indices":[1451,0,1063,0,0,0,0,0,1065,1065,1505,2958,0,0,0,0,1063,0,0,0,1065,0,0],"split_type":[0,0,0,0,0,0,0,0,0,0,0,0,0,0,0,0,0,0,0,0,0,0,0],"sum_hessian":[2.1226585E1,3.4493394E0,1.7777246E1,1.4450077E0,2.0043318E0,5.8491573E0,1.1928089E1,1.4634131E0,4.385744E0,3.6729088E0,8.25518E0,2.8157482E0,1.5699958E0,2.477326E0,1.1955829E0,3.710275E0,4.5449057E0,1.440501E0,1.3752472E0,1.0541023E0,3.4908035E0,1.1635464E0,2.327257E0],"tree_param":{"num_deleted":"0","num_feature":"3082","num_nodes":"23","size_leaf_vector":"0"}},{"base_weights":[-2.5036214E-3,2.4969852E-1,-2.97515E-2,2.1810083E-1,-6.31473E-2,1.9542305E-1,-9.647085E-2,3.0115815E-2,-1.7184524E-1,-3.1769714E-1,1.9557019E-1,1.8517858E-1,-2.5662842E-1,3.9034876E-1,-1.9745646E-1,1.7112251E-2,-4.2488346E-1],"categories":[],"categories_nodes":[],"categories_segments":[],"categories_sizes":[],"default_left":[0,0,0,0,0,0,0,0,0,0,0,0,0,0,0,0,0],"id":56,"left_children":[1,-1,3,-1,5,-1,7,9,11,-1,13,-1,15,-1,-1,-1,-1],"loss_changes":[1.5722321E-1,0E0,1.840018E-1,0E0,1.816992E-1,0E0,1.7130333E-1,4.8504624E-1,3.823738E-1,0E0,5.056967E-1,0E0,4.3831033E-1,0E0,0E0,0E0,0E0],"parents":[2147483647,0,0,2,2,4,4,6,6,7,7,8,8,10,10,12,12],"right_children":[2,-1,4,-1,6,-1,8,10,12,-1,14,-1,16,-1,-1,-1,-1],"split_conditions":[8.000001E0,7.490956E-2,1.2000001E1,6.5430254E-2,3.5E0,5.8626916E-2,2.5E0,3.5E0,1.5E0,-9.5309146E-2,3.5E0,5.5553574E-2,1.5E0,1.17104635E-1,-5.923694E-2,5.1336754E-3,-1.2746504E-1],"split_indices":[2687,0,2389,0,3036,0,1063,0,2346,0,1065,0,1505,0,0,0,0],"split_type":[0,0,0,0,0,0,0,0,0,0,0,0,0,0,0,0,0],"sum_hessian":[2.0797857E1,1.2318727E0,1.9565985E1,1.6665592E0,1.7899426E1,1.4881189E0,1.6411306E1,6.349E0,1.0062306E1,1.750018E0,4.598982E0,1.7037278E0,8.358579E0,3.079592E0,1.5193897E0,3.5238252E0,4.834753E0],"tree_param":{"num_deleted":"0","num_feature":"3082","num_nodes":"17","size_leaf_vector":"0"}},{"base_weights":[1.7354288E-3,2.4687938E-1,-2.9921774E-2,1.7691313E-1,-6.232287E-2,-3.0390975E-1,-2.9456591E-2,-2.4542028E-1,2.1917673E-2,2.2000381E-1,-3.890066E-2,-2.3374218E-2,3.89789E-1,-2.8670117E-1,2.746415E-2],"categories":[],"categories_nodes":[],"categories_segments":[],"categories_sizes":[],"default_left":[0,0,0,0,0,0,0,0,0,0,0,0,0,0,0],"id":57,"left_children":[1,-1,3,-1,5,-1,7,-1,9,11,13,-1,-1,-1,-1],"loss_changes":[1.7338319E-1,0E0,1.4395541E-1,0E0,1.3308263E-1,0E0,1.9236857E-1,0E0,1.8363896E-1,1.5638676E-1,2.0470218E-1,0E0,0E0,0E0,0E0],"parents":[2147483647,0,0,2,2,4,4,6,6,8,8,9,9,10,10],"right_children":[2,-1,4,-1,6,-1,8,-1,10,12,14,-1,-1,-1,-1],"split_conditions":[3.4E1,7.4063815E-2,1.5E0,5.307394E-2,7.8E1,-9.1172926E-2,2.5E0,-7.3626086E-2,2.5E0,2.000001E0,5.5E0,-7.0122657E-3,1.169367E-1,-8.601035E-2,8.239245E-3],"split_indices":[2396,0,1451,0,2874,0,0,0,317,1241,15,0,0,0,0],"split_type":[0,0,0,0,0,0,0,0,0,0,0,0,0,0,0],"sum_hessian":[2.0389677E1,1.5543938E0,1.8835283E1,1.9469137E0,1.688837E1,1.0348375E0,1.5853533E1,2.320724E0,1.3532809E1,2.5641017E0,1.0968707E1,1.4080572E0,1.1560446E0,1.6157092E0,9.352998E0],"tree_param":{"num_deleted":"0","num_feature":"3082","num_nodes":"15","size_leaf_vector":"0"}},{"base_weights":[7.7491446E-4,-1.267102E-1,5.700336E-2,6.0970683E-2,-5.3570944E-1,1.4655657E-1,-3.5103858E-1,-2.9344514E-2,8.892053E-2,-7.6355755E-2,1.9361478E-1,9.592481E-3,2.3879248E-1,1.8097205E-1,-1.6323581E-1,-1.5884599E-1,3.155536E-1,5.030142E-1,1.3961932E-1],"categories":[],"categories_nodes":[],"categories_segments":[],"categories_sizes":[],"default_left":[0,1,0,0,0,0,0,0,0,0,0,0,0,0,0,0,0,0,0],"id":58,"left_children":[1,3,5,7,-1,9,-1,-1,-1,-1,11,13,15,-1,-1,-1,17,-1,-1],"loss_changes":[1.5909131E-1,5.5422807E-1,6.138751E-1,1.663244E-2,0E0,1.5458125E-1,0E0,0E0,0E0,0E0,9.154418E-2,1.2629505E-1,3.2544875E-1,0E0,0E0,0E0,1.9016844E-1,0E0,0E0],"parents":[2147483647,0,0,1,1,2,2,3,3,5,5,10,10,11,11,12,12,16,16],"right_children":[2,4,6,8,-1,10,-1,-1,-1,-1,12,14,16,-1,-1,-1,18,-1,-1],"split_conditions":[1.05E1,1.5E0,3.4E1,1.4000001E1,-1.6071284E-1,1.5E0,-1.0531158E-1,-8.803355E-3,2.6676161E-2,-2.2906728E-2,3.5E0,5.8E1,1.5E0,5.4291617E-2,-4.8970748E-2,-4.7653798E-2,3.5E0,1.5090427E-1,4.1885797E-2],"split_indices":[1505,1065,0,1063,0,1140,0,0,0,0,15,1063,1063,0,0,0,0,0,0],"split_type":[0,0,0,0,0,0,0,0,0,0,0,0,0,0,0,0,0,0,0],"sum_hessian":[2.0186142E1,5.7946377E0,1.4391504E1,4.5552564E0,1.2393814E0,1.2326934E1,2.06457E0,1.0647614E0,3.4904947E0,2.0401707E0,1.0286763E1,2.26659E0,8.020173E0,1.1144055E0,1.1521845E0,1.1246907E0,6.8954825E0,2.4383168E0,4.4571657E0],"tree_param":{"num_deleted":"0","num_feature":"3082","num_nodes":"19","size_leaf_vector":"0"}},{"base_weights":[-5.487917E-3,2.2798665E-1,-3.6634088E-2,2.1617104E-1,-6.5714374E-2,1.6695939E-1,-9.381243E-2,-3.5020083E-1,-4.2288397E-2,2.6044407E-1,-8.310551E-2,1.3719824E-1,-1.4284492E-1],"categories":[],"categories_nodes":[],"categories_segments":[],"categories_sizes":[],"default_left":[0,0,0,0,0,0,0,0,0,0,0,0,0],"id":59,"left_children":[1,-1,3,-1,5,-1,7,-1,9,-1,11,-1,-1],"loss_changes":[1.5960181E-1,0E0,1.5545142E-1,0E0,1.3332567E-1,0E0,2.0578249E-1,0E0,2.075102E-1,0E0,2.0401707E-1,0E0,0E0],"parents":[2147483647,0,0,2,2,4,4,6,6,8,8,10,10],"right_children":[2,-1,4,-1,6,-1,8,-1,10,-1,12,-1,-1],"split_conditions":[4.5E0,6.8395995E-2,4.5E0,6.4851314E-2,2.2E1,5.008782E-2,2.5E0,-1.0506026E-1,2.5E0,7.8133225E-2,1.5E0,4.1159473E-2,-4.2853475E-2],"split_indices":[2389,0,3053,0,2396,0,0,0,2850,0,317,0,0],"split_type":[0,0,0,0,0,0,0,0,0,0,0,0,0],"sum_hessian":[1.9799376E1,1.586551E0,1.8212824E1,1.2151867E0,1.6997639E1,1.2989872E0,1.569865E1,1.656903E0,1.4041748E1,1.029012E0,1.3012735E1,2.4993083E0,1.0513428E1],"tree_param":{"num_deleted":"0","num_feature":"3082","num_nodes":"13","size_leaf_vector":"0"}},{"base_weights":[3.5311717E-3,-2.072804E-1,3.762022E-2,-2.805214E-1,7.3824875E-2,2.9373503E-1,4.1397925E-2,-1.4266418E-1,6.807885E-2,-3.7097327E-2,1.5098067E-1,5.7493553E-2,-1.7441581E-1,3.6176777E-1,1.6585944E-2],"categories":[],"categories_nodes":[],"categories_segments":[],"categories_sizes":[],"default_left":[0,0,0,0,0,0,0,0,1,0,0,0,0,0,0],"id":60,"left_children":[1,-1,3,-1,5,-1,7,-1,9,11,13,-1,-1,-1,-1],"loss_changes":[1.5487441E-1,0E0,2.333776E-1,0E0,1.1169731E-1,0E0,8.976515E-2,0E0,1.3564119E-1,1.0584357E-1,2.3585378E-1,0E0,0E0,0E0,0E0],"parents":[2147483647,0,0,2,2,4,4,6,6,8,8,9,9,10,10],"right_children":[2,-1,4,-1,6,-1,8,-1,10,12,14,-1,-1,-1,-1],"split_conditions":[8.000001E0,-6.218412E-2,3.5E0,-8.4156424E-2,8.000001E0,8.812051E-2,2.5E0,-4.2799257E-2,1.5E0,1.5E0,2.5E0,1.7248066E-2,-5.2324746E-2,1.08530335E-1,4.9757836E-3],"split_indices":[1815,0,2958,0,2687,0,966,0,0,1505,1065,0,0,0,0],"split_type":[0,0,0,0,0,0,0,0,0,0,0,0,0,0,0],"sum_hessian":[1.9466042E1,2.002394E0,1.7463648E1,1.0948291E0,1.6368818E1,1.0679475E0,1.5300871E1,1.3867987E0,1.3914072E1,6.3766437E0,7.537429E0,4.119954E0,2.2566895E0,2.275953E0,5.2614756E0],"tree_param":{"num_deleted":"0","num_feature":"3082","num_nodes":"15","size_leaf_vector":"0"}},{"base_weights":[1.4018108E-3,-2.295028E-1,2.5518762E-2,-1.6720928E-1,5.7193533E-2,2.2574675E-1,1.42730065E-2,-2.2184223E-2,3.5432684E-1,2.287727E-1,